tree
num_class=1
num_tree_per_iteration=1
label_index=0
max_feature_idx=33
objective=poisson
feature_names=Column_0 Column_1 Column_2 Column_3 Column_4 Column_5 Column_6 Column_7 Column_8 Column_9 Column_10 Column_11 Column_12 Column_13 Column_14 Column_15 Column_16 Column_17 Column_18 Column_19 Column_20 Column_21 Column_22 Column_23 Column_24 Column_25 Column_26 Column_27 Column_28 Column_29 Column_30 Column_31 Column_32 Column_33
feature_infos=[0:1] [3:89] [10.039999999999999:434.94999999999999] [0.12:498.88999999999999] [22.98:374.31999999999999] [6.3600000000000003:736.99000000000001] [59.859999999999999:93.239999999999995] [29.539999999999999:53.789999999999999] [19.620000000000001:49.5] [0.60999999999999999:2.4700000000000002] [0.27000000000000002:41.57] [1.8500000000000001:10.609999999999999] [0.59999999999999998:2.7400000000000002] [0.56000000000000005:7.8600000000000003] [1.5:13.390000000000001] [39.43:177.41999999999999] [141.75999999999999:774.05999999999995] [2.7999999999999998:21.059999999999999] [3.0099999999999998:6.6699999999999999] [65:204] [0.23899999999999999:0.59899999999999998] [59:113] [16:44.700000000000003] [272:444] [10.9:23.800000000000001] [37:745] [7.0999999999999996:15.199999999999999] [8.4000000000000004:25.100000000000001] [0.042000000000000003:0.70999999999999996] [14.4:88.5] [7.5:76.299999999999997] [3.1000000000000001:16.800000000000001] [0:18.800000000000001] [0:3.5]

Tree=0
num_leaves=12
num_cat=0
split_feature=10 10 21 19 21 4 5 25 15 13 4
split_gain=69.014837246211883 28.888158996363565 27.117913188500459 20.090285087142981 20.542762813478145 16.87587255081749 13.533222609271959 11.514976416672432 10.517660315393982 7.6811758158411072 3.3731945734888598
threshold=2.0350000000000001 6.3949999999999996 88.450000000000003 140.94999999999999 82.25 96.14500000000001 23.755000000000003 181.5 90.055000000000007 5.0299999999999994 76.334999999999994
decision_type=10 10 8 8 10 8 8 8 10 10 8
left_child=3 5 -3 8 -5 9 -6 -7 10 -2 -1
right_child=1 2 -4 4 6 7 -8 -9 -10 -11 -12
leaf_value=1.7200084359488956 1.7212130922685802 1.728513730497786 1.7222640673572029 1.7242564738829489 1.7204095987146664 1.7252305573956419 1.7211626496293835 1.7223148710092195 1.7233956595337403 1.7233208251446011 1.7204473282282486
leaf_count=460 493 23 27 34 604 26 1456 356 20 33 982
internal_value=0 0.10075760840037645 0.41374322125509883 -0.027144485653942972 -0.00058089400072333468 0.083522717824675893 -0.0059628012601227829 0.15118406786612301 -0.065191107351509264 0.03438462711016485 -0.069415920691225499
internal_count=4514 958 50 3556 2094 908 2060 382 1462 526 1442
shrinkage=1


Tree=1
num_leaves=13
num_cat=0
split_feature=1 14 10 5 23 10 10 16 3 4 5 14
split_gain=84.04500371058289 35.59800243547464 31.349960016666991 30.192262605963215 29.177083383805297 19.321671453394544 17.972366946469336 12.916511035899717 8.0280083758078291 10.690343818005173 7.8972010056277071 2.6326155496444001
threshold=51.5 7.4649999999999999 1.9049999999999998 25.734999999999999 338.5 6.3949999999999996 5.6050000000000004 294.45999999999998 22.200000000000003 117.72999999999999 25.615000000000002 6.1550000000000002
decision_type=2 10 10 10 8 10 10 8 8 10 8 10
left_child=1 2 10 8 -3 -4 7 -5 11 -10 -1 -2
right_child=3 4 5 6 -6 -7 -8 -9 9 -11 -12 -13
leaf_value=-0.00097864919164048696 -0.00026822373969056411 -0.00014581796311910329 0.00020748622886225174 0.0028412637039719603 0.0066660037650329001 0.0036225457105347838 0.0054756610992724129 0.0011437583512244581 0.00056556480130643251 0.0035371976838029983 -0.0004795975587208651 0.00056874734591266535
leaf_count=937 337 22 621 95 23 31 20 513 369 23 1439 84
internal_value=0 -0.039525118248960343 -0.045076091963079386 0.084267126543510013 0.33381630203061463 0.037036499240572833 0.15389193233983883 0.14089554634698731 0.030443404098675554 0.073997834160896975 -0.067633368491891319 -0.010120473957170787
internal_count=4514 3073 3028 1441 45 652 628 608 813 392 2376 421
shrinkage=0.01


Tree=2
num_leaves=13
num_cat=0
split_feature=1 14 10 10 23 10 21 3 2 24 0 21
split_gain=82.335057807345834 34.800587537181883 30.749316066969918 28.315644849384839 28.313924527618383 18.85704448344487 17.817510156921976 12.318354100587413 24.507419924284363 10.280859099820148 6.4177311537856099 4.3609869792908738
threshold=51.5 7.4649999999999999 1.9049999999999998 2.5750000000000002 338.5 6.3949999999999996 85.75 21.710000000000001 20.734999999999999 12.649999999999999 9.9999996826552254e-21 84.849999999999994
decision_type=2 10 10 10 8 10 8 8 8 10 2 8
left_child=1 2 10 7 -3 -4 -5 11 -9 -8 -1 -2
right_child=3 4 5 6 -6 -7 9 8 -10 -11 -12 -13
leaf_value=-0.000846775045266419 0.0016093593054483737 -0.00014438093737653807 0.00020536854041496499 0.0052225471282815036 0.0065552774160081012 0.0035732867907805901 0.0025865711695228404 0.0050605429610042982 0.00079636582471515407 0.00066325147530036407 -0.00039637979224285778 -3.8402460596815738e-07
leaf_count=1444 32 22 621 30 23 31 112 25 649 89 932 504
internal_value=0 -0.039145759464535815 -0.044645717493848963 0.083353273568734773 0.32936351146586862 0.036652214260652009 0.21884168596891065 0.057435352106374397 0.095461075691125649 0.17348836822947303 -0.067002591609859524 0.0095757059585233756
internal_count=4514 3073 3028 1441 45 652 231 1210 674 201 2376 536
shrinkage=0.01


Tree=3
num_leaves=13
num_cat=0
split_feature=1 14 10 5 23 10 10 16 5 3 4 14
split_gain=80.660193180498169 34.022316025172671 30.159971590460479 29.218465853826402 27.480563835213257 18.404615245785905 17.266519688599303 12.58968036637512 7.7308333568496863 7.7237539825819646 10.373390824266407 2.5827810190884786
threshold=51.5 7.4649999999999999 1.9049999999999998 25.734999999999999 338.5 6.3949999999999996 5.6050000000000004 294.45999999999998 25.615000000000002 22.200000000000003 117.72999999999999 6.1550000000000002
decision_type=2 10 10 10 8 10 10 8 8 8 10 10
left_child=1 2 8 9 -3 -4 7 -5 -1 11 -11 -2
right_child=3 4 5 6 -6 -7 -8 -9 -10 10 -12 -13
leaf_value=-0.00096317896855284044 -0.0002684825222737877 -0.00014295788081130435 0.00020327287184336969 0.0027918510524226302 0.0064471080365487788 0.0035248720267290847 0.0053510006509628902 0.0011189740859001924 -0.000469047816504465 0.00054972561153770409 0.0034699986114006772 0.00056026024501221237
leaf_count=937 337 22 621 95 23 31 20 513 1439 369 23 84
internal_value=0 -0.038769885094460853 -0.044219254731562616 0.082449985454232738 0.32498486089341039 0.036272057176228042 0.1508256922650435 0.13806829606592352 -0.066377269580702516 0.029499592136462381 0.072168638979743752 -0.010300264702278067
internal_count=4514 3073 3028 1441 45 652 628 608 2376 813 392 421
shrinkage=0.01


Tree=4
num_leaves=13
num_cat=0
split_feature=1 14 10 5 6 10 10 16 21 17 5 3
split_gain=79.019963671686185 33.262673868798046 29.581732301038613 28.668420895139135 26.939596955196709 17.964025135344858 16.942467149256316 15.467540338254331 9.6926866542998322 10.039274179764224 7.5935377396858854 5.1749283362122318
threshold=51.5 7.4649999999999999 1.9049999999999998 31.109999999999999 76.125 6.3949999999999996 5.875 292.53499999999997 85.349999999999994 5.8449999999999998 25.734999999999999 16.975000000000001
decision_type=2 10 10 10 10 10 8 10 10 10 8 8
left_child=1 2 10 8 -3 -4 7 -5 9 -2 -1 -10
right_child=3 4 5 6 -6 -7 -8 -9 11 -11 -12 -13
leaf_value=-0.0009531766207843635 -9.739232528515716e-05 0.0068356524988360924 0.00020119904621718283 0.0030167999318883084 0.00028587952133330336 0.0034772823315452838 0.0054385259954903573 0.0010983305007419087 -0.00023087726914363603 0.0029096590134086021 -0.00046371751753692357 0.00047627288052580019
leaf_count=942 32 20 621 94 25 31 20 365 265 52 1434 613
internal_value=0 -0.03839747649406848 -0.043796682454708767 0.081557338581299793 0.32067867332540134 0.035895987361340385 0.1658458844665078 0.1491893070853251 0.039446825766846841 0.17649681939728604 -0.065757380045252209 0.02631588774684239
internal_count=4514 3073 3028 1441 45 652 479 459 962 84 2376 878
shrinkage=0.01


Tree=5
num_leaves=13
num_cat=0
split_feature=10 10 21 14 21 19 4 5 16 13 22 9
split_gain=62.990550761028615 25.26556620010227 25.63204671203939 23.895969638276817 35.753868300775707 17.729888358118995 16.204296961568872 12.393288951918137 11.425780629910207 7.4063172913791995 2.9793112976724165 2.5117556970319086
threshold=2.0350000000000001 6.3949999999999996 88.450000000000003 7.3449999999999998 87.25 140.94999999999999 96.14500000000001 25.734999999999999 379.88 4.8849999999999998 31.050000000000001 1.0950000000000002
decision_type=10 10 8 10 10 10 8 8 10 10 10 8
left_child=3 6 -3 5 -5 11 9 -7 -8 -2 -6 -1
right_child=1 2 -4 4 10 7 8 -9 -10 -11 -12 -13
leaf_value=0.00080980025788099017 0.00017261334455657312 0.0070920944519801037 0.0010785754446182897 0.0068124272118593003 -0.00011813307177462481 -0.00053624946910998353 0.002147231748904238 0.00016893934656697903 0.00068513626607912123 0.0020612717535704304 0.001600922541412678 -0.00069923338041297744
leaf_count=20 486 23 27 20 50 666 202 1354 180 40 28 1418
internal_value=0 0.095992150192674278 0.38564660134236206 -0.026006872711755179 0.17940592962752372 -0.031865845737890044 0.079774885208037202 -0.0063202545433364028 0.14589645668942747 0.031660501829651959 0.05001469118118973 -0.067818285362753639
internal_count=4514 958 50 3556 98 3458 908 2020 382 526 78 1438
shrinkage=0.01


Tree=6
num_leaves=14
num_cat=0
split_feature=1 10 5 10 10 16 23 29 21 26 2 5 5
split_gain=77.046629396148646 29.595793204341049 27.663096453103378 18.092059526814374 16.128989406799292 15.018584249838959 11.211925110596248 15.600607545014411 9.4595410351853904 10.666999406512348 9.054680997638588 5.5129965539565333 4.2179041126258259
threshold=51.5 1.9049999999999998 31.109999999999999 6.3949999999999996 5.875 292.53499999999997 347.5 62.650000000000006 85.349999999999994 11.25 16.600000000000001 25.440000000000001 22.984999999999999
decision_type=2 10 10 10 8 10 8 10 10 10 10 8 8
left_child=1 6 8 10 5 -4 11 -8 9 -2 -3 -1 -10
right_child=2 3 4 -5 -6 -7 7 -9 12 -11 -12 -13 -14
leaf_value=-0.0009519605005510809 0.00070780568201894516 0.0029087402069969876 0.0029680459674097021 0.0034258124857172688 0.0053029039509343134 0.0010807477861622494 -0.00029348474225068935 0.002348195323593824 -3.829193858445605e-05 0.003926616312628097 0.00015167852639623807 -0.00051733688530999022 0.00054767066154774388
leaf_count=884 57 22 94 33 20 365 186 51 430 27 610 1287 448
internal_value=0 -0.03794398137816532 0.080472103005380574 0.040852721156045678 0.16314649238327431 0.146858305769239 -0.059846093482291945 0.027581146803800138 0.039086515788426784 0.1743446739173129 0.024776867179411265 -0.069402921932898404 0.026106159238963717
internal_count=4514 3073 1441 665 479 459 2408 237 962 84 632 2171 878
shrinkage=0.01


Tree=7
num_leaves=15
num_cat=0
split_feature=1 10 5 10 2 6 3 24 23 29 3 4 5 27
split_gain=75.480622395849252 29.023270968168081 27.078681135614794 17.659129319112015 17.467025783761969 17.462363799585383 15.009120539457342 12.453283175254526 10.999905725562115 15.25424799878618 7.3821170642395959 10.079561569740811 5.4150664699921549 1.6516086225095299
threshold=51.5 1.9049999999999998 25.734999999999999 6.3949999999999996 20.734999999999999 76.824999999999989 36.504999999999995 11.850000000000001 347.5 62.650000000000006 22.200000000000003 117.72999999999999 25.440000000000001 15.350000000000001
decision_type=2 10 10 10 10 10 10 10 8 10 8 10 8 10
left_child=1 8 10 7 5 -4 -6 -3 12 -10 13 -12 -1 -2
right_child=2 3 4 -5 6 -7 -8 -9 9 -11 11 -13 -14 -15
leaf_value=-0.00094334300347772865 -0.00021863585636567391 0.0022889244881739309 0.001737811379403067 0.0033798967111166311 0.00068044173018417175 0.0054131786032515098 0.0022249000109091262 7.3197926052060973e-05 -0.0002906356026754167 0.0023192334120175177 0.00053289198273315643 0.0034048107352579594 -0.00051242989231345718 0.00050538759537690668
leaf_count=884 354 49 63 33 369 36 160 583 186 51 369 23 1287 67
internal_value=0 -0.037579120089082804 0.079602418326052485 0.040427211486308505 0.14520844878083058 0.30750265422826006 0.1148003268516733 0.024522858952580582 -0.05928339284384284 0.027297161620375196 0.028592648288153239 0.070252409786585437 -0.068756857316728218 -0.01033403519005098
internal_count=4514 3073 1441 665 628 99 529 632 2408 237 813 392 2171 421
shrinkage=0.01


Tree=8
num_leaves=14
num_cat=0
split_feature=1 14 10 5 23 24 16 10 21 26 23 5 3
split_gain=73.946719149485915 31.967166501228117 27.356914330714385 26.534831626354475 25.984336454241326 17.517733718490987 21.297956903282895 16.325928394527956 9.2175329591822752 10.373244138393412 7.7895268438591696 7.0852630906293115 4.9056257886297878
threshold=51.5 7.4649999999999999 1.9049999999999998 31.109999999999999 338.5 12.649999999999999 291.63999999999999 6.3949999999999996 85.349999999999994 11.25 348.5 25.734999999999999 16.975000000000001
decision_type=2 10 10 10 8 8 10 10 10 10 10 8 8
left_child=1 2 11 8 -3 6 -5 -4 9 -2 -7 -1 -10
right_child=3 4 7 5 -6 10 -8 -9 12 -11 -12 -13 -14
leaf_value=-0.00092317973653231722 0.00069369213868479389 -0.000165987405773768 0.00018881364224096922 0.0049682279923771947 0.006216458363617226 0.00053268010066837446 0.0017871231147758211 0.0032912850833620526 -0.00022743945004084047 0.0038622166088685718 0.0029708143091207928 -0.00044977546185979739 0.00046099824773671694
leaf_count=942 57 22 621 46 23 215 192 31 265 27 26 1434 613
internal_value=0 -0.037217637521130512 -0.042531117686006897 0.078742729175702797 0.31387110594508222 0.15955847717414634 0.2405198574057274 0.034002797388072756 0.038197105032529453 0.1715448026168451 0.07958238938121355 -0.063706365710579305 0.025378602021451094
internal_count=4514 3073 3028 1441 45 479 238 652 962 84 241 2376 878
shrinkage=0.01


Tree=9
num_leaves=14
num_cat=0
split_feature=1 14 10 5 6 2 6 10 3 3 4 5 14
split_gain=72.444403779298355 31.25593406680926 26.831860204674918 25.988485542889961 25.458059829330161 17.008028947663291 16.888387222329428 15.939457294514089 14.551615447161936 7.1559432332819055 9.8230715324852955 6.9587968247008902 2.497917582198613
threshold=51.5 7.4649999999999999 1.9049999999999998 25.734999999999999 76.125 20.734999999999999 76.824999999999989 6.3949999999999996 34.605000000000004 22.200000000000003 117.72999999999999 25.615000000000002 6.1550000000000002
decision_type=2 10 10 10 10 10 10 10 10 8 10 8 10
left_child=1 2 11 9 -3 6 -5 -4 -7 12 -11 -1 -2
right_child=3 4 7 5 -6 8 -8 -9 -10 10 -12 -13 -14
leaf_value=-0.00091605786514704045 -0.00026711646841329532 0.0065903313397750549 0.00018689001959087688 0.0017034599706641535 0.00025345565806149807 0.00060574653279496711 0.0053081470023423564 0.0032476114421750384 0.0020664839503700023 0.00052126700936419655 0.003350953344733515 -0.00044628843075203542 0.00054751513388195288
leaf_count=937 337 20 621 63 25 343 36 31 186 369 23 1439 84
internal_value=0 -0.036859552183413351 -0.042123953214875533 0.07789298260637606 0.30974705488549487 0.14204652733885759 0.3018220819189214 0.033651034136368926 0.11205375856492855 0.027907748711681873 0.068886469001521788 -0.06310972176330984 -0.010427869603154416
internal_count=4514 3073 3028 1441 45 628 99 652 529 813 392 2376 421
shrinkage=0.01


Tree=10
num_leaves=14
num_cat=0
split_feature=1 14 5 5 7 24 16 1 21 26 22 18 3
split_gain=70.972979174519622 30.56157325075743 25.453173486359802 24.469871263032537 23.356434384789345 17.014611801911769 20.620562950785626 11.509681869518012 8.9951899486854092 10.10279959614396 6.3332225364459784 5.068643050326628 4.7338410784345069
threshold=51.5 7.4649999999999999 31.109999999999999 29.770000000000003 47.245000000000005 12.649999999999999 291.63999999999999 37.5 85.349999999999994 11.25 32.049999999999997 4.7649999999999997 16.975000000000001
decision_type=2 10 10 10 10 8 10 2 10 10 10 8 8
left_child=1 3 8 11 -3 6 -4 -5 9 -2 -7 -1 -10
right_child=2 4 5 7 -6 10 -8 -9 12 -11 -12 -13 -14
leaf_value=-0.00088422523805286755 0.00068024769303907007 0.0062651797109076765 0.0048693143509436149 -0.00040156017588363938 0.0002250203449730081 0.00048726578267408414 0.001748548577509528 0.00055521187044549889 -0.00022621262379079012 0.0038019520600847314 0.0023987909342551845 -0.00046773496272949083 0.0004499863711093559
leaf_count=1025 57 21 46 386 24 205 192 538 265 27 36 1079 613
internal_value=0 -0.036504777276706882 0.077053081364775122 -0.041720514183649332 0.30568993451451515 0.15605596266199342 0.23565397710444949 0.015571260996433136 0.037330095743008496 0.16890201784383471 0.077285000035959339 -0.067043927944648155 0.024662551952229148
internal_count=4514 3073 1441 3028 45 479 238 924 962 84 241 2104 878
shrinkage=0.01


Tree=11
num_leaves=13
num_cat=0
split_feature=1 14 10 10 6 21 10 3 2 24 18 21
split_gain=69.531743642021809 29.883702348653735 26.042145387326936 25.333407116850104 24.416534541793389 16.50221090081088 15.543387710047245 10.870817087559583 23.050980139114213 9.6197126868904945 5.9406189200668393 3.8050555140740787
threshold=51.5 7.4649999999999999 1.9049999999999998 2.5750000000000002 76.125 85.75 6.3949999999999996 21.710000000000001 20.734999999999999 12.649999999999999 4.7649999999999997 84.849999999999994
decision_type=2 10 10 10 10 8 10 8 8 10 8 8
left_child=1 2 10 7 -3 -5 -4 11 -9 -7 -1 -2
right_child=3 4 6 5 -6 9 -8 8 -10 -11 -12 -13
leaf_value=-0.0008564706974604258 0.0014726439982387098 0.0064129441631766747 0.000185099026772173 0.0049246901378609534 0.00022873061543744459 0.0024167044209236852 0.0032026601221241337 0.0048221828341348015 0.00071884107059569683 0.00056654351608140241 -0.00042969678943356363 -2.2550843412969614e-05
leaf_count=1062 32 20 621 30 25 112 31 25 649 89 1314 504
internal_value=0 -0.036153258975347997 -0.041320748224755885 0.076222878740202352 0.30169874447627071 0.20349436961880979 0.033306235915749813 0.051700056039808193 0.087240506523597688 0.15994564634588401 -0.062019532967692692 0.0067560667427382041
internal_count=4514 3073 3028 1441 45 231 652 1210 674 201 2376 536
shrinkage=0.01


Tree=12
num_leaves=13
num_cat=0
split_feature=1 14 10 10 23 21 10 5 16 24 5 3
split_gain=68.120158333984335 29.221781943999257 25.541763142833432 24.74617527635224 24.610272380468373 16.034827232662991 15.17696493982865 11.177178338302149 10.408686228524143 9.3848725716577981 6.7467982824431374 3.3420453439672637
threshold=51.5 7.4649999999999999 1.9049999999999998 2.5750000000000002 338.5 85.75 6.3949999999999996 23.755000000000003 265.185 12.649999999999999 25.615000000000002 22.200000000000003
decision_type=2 10 10 10 8 8 10 8 8 10 8 10
left_child=1 2 10 7 -3 -5 -4 11 -9 -7 -1 -2
right_child=3 4 6 5 -6 9 -8 8 -10 -11 -12 -13
leaf_value=-0.00089532803366951426 -0.00020622744045128348 -0.00023498200430780643 0.00018321394823690357 0.0048513714240106618 0.0059394432736992421 0.0023867331831895016 0.003160444220959748 0.0026367678642677246 0.00069100226879738921 0.00056055880832846163 -0.00043231667389511861 0.00065359148696695268
leaf_count=937 354 22 621 30 23 112 31 52 700 89 1439 104
internal_value=0 -0.035805021114775466 -0.040924668194561961 0.075402272789159105 0.29777131342687102 0.20104662274686552 0.03296191842024878 0.05115617566329337 0.082644740614338158 0.15809136019574388 -0.061437642788289004 -0.0009737400265818338
internal_count=4514 3073 3028 1441 45 231 652 1210 752 201 2376 458
shrinkage=0.01


Tree=13
num_leaves=10
num_cat=0
split_feature=1 10 14 3 10 5 6 1 18
split_gain=66.925795005079337 39.004390217275585 36.733743797824161 25.566295783916992 17.103355976863853 14.344427666745844 11.077682435929837 6.7299613549077932 5.0073173806315836
threshold=47.5 5.875 7.4649999999999999 35.149999999999999 1.9049999999999998 23.585000000000001 81.254999999999995 37.5 4.7649999999999997
decision_type=2 10 10 10 10 8 10 2 8
left_child=2 3 4 5 8 -2 -5 -6 -1
right_child=1 -3 -4 6 7 -7 -8 -9 -10
leaf_value=-0.00092181697004104781 -0.00017754020888246865 0.0055390341867764051 0.0037875854460612708 0.001355538264008239 -0.00034838297587988526 0.00063687858131269959 0.0036678451069621326 0.00060581459015358668 -0.00049694638321243993
leaf_count=893 625 27 35 214 243 1009 44 287 1137
internal_value=0 0.059568614750082155 -0.044525224351690859 0.052257421572271139 -0.050534309224630064 0.032686616966326625 0.17509499980433288 0.016868018084340519 -0.068354126524797484
internal_count=4514 1919 2595 1892 2560 1634 258 530 2030
shrinkage=0.01


Tree=14
num_leaves=13
num_cat=0
split_feature=1 14 10 10 23 21 10 5 16 24 5 3
split_gain=65.653061541993509 27.919094601674036 24.608007398121437 23.868836284118913 23.789292061782248 15.509486318389897 14.717063526240155 10.677607600432921 10.106074959181537 9.139715714042957 6.577597615528596 3.2564802366392502
threshold=51.5 7.4649999999999999 1.9049999999999998 2.5750000000000002 338.5 85.75 6.3949999999999996 23.755000000000003 265.185 12.649999999999999 25.615000000000002 22.200000000000003
decision_type=2 10 10 10 8 8 10 8 8 10 8 10
left_child=1 2 10 7 -3 -5 -4 11 -9 -7 -1 -2
right_child=3 4 6 5 -6 9 -8 8 -10 -11 -12 -13
leaf_value=-0.00088135309351421208 -0.00020253584471494838 -0.00026090503464419926 0.0001783579604617586 0.0047554900459672771 0.0057919706459309819 0.0023420476656315858 0.0031041273828115558 0.0025888888714490606 0.00067509821531359362 0.00054219468098967965 -0.00042389250428454385 0.00064600840885916983
leaf_count=937 354 22 621 30 23 112 31 52 700 89 1439 104
internal_value=0 -0.035186605032854375 -0.040209645826506803 0.073949592215191318 0.28985701737737662 0.19712193521934063 0.032275491240582259 0.050125974730432274 0.080860383866539626 0.15486740134550961 -0.060369831232824155 -0.00084594028252151898
internal_count=4514 3073 3028 1441 45 231 652 1210 752 201 2376 458
shrinkage=0.01


Tree=15
num_leaves=13
num_cat=0
split_feature=1 14 5 5 16 20 21 2 3 4 18 1
split_gain=64.501960988339263 35.259640259743961 31.961918754037477 15.234957003049097 14.022024456168751 21.0360534105886 17.043697633993098 9.4196737845604979 6.6939454731100767 8.9607716860301831 4.1594768864984246 3.2502948533654101
threshold=47.5 7.4649999999999999 25.734999999999999 29.770000000000003 281.98000000000002 0.45950000000000002 85.950000000000003 68.319999999999993 22.895 117.72999999999999 4.7649999999999997 55.5
decision_type=2 10 10 10 8 10 8 10 8 10 8 2
left_child=1 3 8 10 5 -4 -6 -5 11 -10 -1 -2
right_child=2 -3 4 7 6 -7 -8 -9 9 -11 -12 -13
leaf_value=-0.00092487344289314891 -0.00058321921012968281 0.0036953910164651805 0.0015028376665998761 -8.2274211314671116e-05 0.0028714365498251938 0.0059246144118813527 0.00078894195404656097 0.0026061337262407447 0.00032930922577993946 0.0029004510937340718 -0.00051551257495619548 6.4830570797626559e-05
leaf_count=860 240 35 68 741 77 26 648 24 506 25 935 329
internal_value=0 -0.043753666843215598 0.058423870695579985 -0.049665816012736633 0.12103914525002286 0.27312501719174165 0.10119556873059006 0.0002259848513793609 0.011176347123588953 0.045206091009676964 -0.071129582135935954 -0.02076993723205213
internal_count=4514 2595 1919 2560 819 94 725 765 1100 531 1795 569
shrinkage=0.01


Tree=16
num_leaves=10
num_cat=0
split_feature=1 10 14 3 10 5 6 1 5
split_gain=63.208675605131802 37.298045614491052 34.46164259729035 24.464864554014895 16.271148177363834 13.489070908387834 10.66644931286006 6.5943938644989109 4.3782190921296191
threshold=47.5 5.875 7.4649999999999999 35.149999999999999 1.9049999999999998 23.585000000000001 81.254999999999995 37.5 25.615000000000002
decision_type=2 10 10 10 10 8 10 2 8
left_child=2 3 4 5 8 -2 -5 -6 -1
right_child=1 -3 -4 6 7 -7 -8 -9 -10
leaf_value=-0.00091100495935397222 -0.00017466295365101242 0.0053882636408461746 0.0036448744844221788 0.0013175390803846746 -0.00034676337704334683 0.00061486125729042559 0.0035798032017229087 0.00059765107226807134 -0.00050705334799690303
leaf_count=802 625 27 35 214 243 1009 44 287 1228
internal_value=0 0.057805173728500123 -0.043335395627396842 0.050632279591814496 -0.049193804288373201 0.03147651626702324 0.17053918957992614 0.016521833259724745 -0.066606219054313021
internal_count=4514 1919 2595 1892 2560 1634 258 530 2030
shrinkage=0.01


Tree=17
num_leaves=13
num_cat=0
split_feature=1 14 10 23 10 21 10 18 3 24 5 23
split_gain=62.180598918586099 26.058320046349525 23.467432942972959 22.899336351812057 22.876497830168248 14.809490485587041 14.229595300023725 10.453214719997131 9.0452177219568064 8.885600513534488 6.2421208493987876 2.8682872363673773
threshold=51.5 7.4649999999999999 1.9049999999999998 338.5 2.5750000000000002 85.75 6.3949999999999996 4.8550000000000004 41.519999999999996 12.649999999999999 25.615000000000002 345.5
decision_type=2 10 10 8 10 8 10 10 10 10 8 10
left_child=1 2 10 -3 7 -6 -4 11 -9 -7 -1 -2
right_child=4 3 6 -5 5 9 -8 8 -10 -11 -12 -13
leaf_value=-0.00085980708594742916 -1.8730181761193087e-05 -0.00031352483650720387 0.00017347488678319791 0.0055993063209611883 0.0046299299963939115 0.0022887876238186639 0.0030440738986084589 0.00072292676011751216 0.0025983542624807101 0.00051700772247297998 -0.00041375298356557879 0.00083645943970161985
leaf_count=937 527 22 621 23 30 112 31 554 49 89 1439 80
internal_value=0 -0.034293888591934538 -0.03917343389471261 0.27829658341598945 0.07186283514215526 0.19217242579065769 0.031570402278331938 0.048531785836893195 0.087704916617003761 0.15086325241050877 -0.05889369385330543 0.0094401672482013668
internal_count=4514 3073 3028 45 1441 231 652 1210 603 201 2376 607
shrinkage=0.01


Tree=18
num_leaves=13
num_cat=0
split_feature=1 14 10 6 10 21 10 18 3 24 18 23
split_gain=60.919897276196657 25.48613712096342 23.015709960340015 22.517268567828076 22.350451005203247 14.39729636849718 13.896775172891553 10.230153838308235 8.8277627003308687 8.6710248440535942 5.5722876099284164 2.8086220380401441
threshold=51.5 7.4649999999999999 1.9049999999999998 76.125 2.5750000000000002 85.75 6.3949999999999996 4.8550000000000004 41.519999999999996 12.649999999999999 4.7649999999999997 345.5
decision_type=2 10 10 10 10 8 10 10 10 10 8 10
left_child=1 2 10 -3 7 -6 -4 11 -9 -7 -1 -2
right_child=4 3 6 -5 5 9 -8 8 -10 -11 -12 -13
leaf_value=-0.0008128495459733164 -1.8543230042194592e-05 0.0059525409004591804 0.00017171020191014721 7.9371270532772802e-05 0.0045623509446552227 0.0022606933581701982 0.0030044271730950917 0.00071517767493721148 0.0025656618048433017 0.00051157175787288917 -0.00039867376122101742 0.00082739897082000275
leaf_count=1062 527 20 621 25 30 112 31 554 49 89 1314 80
internal_value=0 -0.033962917105407595 -0.038797097654222693 0.27473851871035176 0.07109238758456804 0.18988253318055134 0.031244583269351492 0.048022866523896722 0.086751220599824236 0.14912788711454067 -0.058339301950486942 0.0093448364614275824
internal_count=4514 3073 3028 45 1441 231 652 1210 603 201 2376 607
shrinkage=0.01


Tree=19
num_leaves=12
num_cat=0
split_feature=1 10 3 23 21 10 18 10 8 13 18
split_gain=59.937756935644323 35.488234784524273 23.319728312448458 18.038623918919082 28.778793220060152 12.019394315362153 11.676535107942918 11.017234202932485 10.136725425024927 4.8448484718600087 3.8715465742285531
threshold=47.5 5.875 35.149999999999999 346.5 82.849999999999994 4.2350000000000003 5.0949999999999998 2.145 35.775000000000006 4.5949999999999998 4.7649999999999997
decision_type=2 10 10 8 10 10 10 10 10 10 10
left_child=3 2 6 7 -5 -6 -2 10 -4 -9 -1
right_child=1 -3 8 4 5 -7 -8 9 -10 -11 -12
leaf_value=-0.00090448630558047805 6.8749254460049157e-05 0.0052296468511904516 0.0013084218716948215 0.0052298114980292723 -4.7333670233253258e-05 0.0032891375208690672 0.00084295340946808673 -7.4614607127390775e-05 0.0036171339625570599 0.0013457252961848914 -0.0005185097078144003
leaf_count=851 1138 27 219 21 314 20 496 289 39 50 1050
internal_value=0 0.056214315399445117 0.049191380439227016 -0.042256051937582029 0.04633309087737629 0.015874134412409951 0.030474950431181157 -0.056388840147910076 0.16600818083997465 0.013500042605030375 -0.069075640493275567
internal_count=4514 1919 1892 2595 355 334 1634 2240 258 339 1901
shrinkage=0.01


Tree=20
num_leaves=13
num_cat=0
split_feature=10 14 23 10 21 19 4 25 5 13 9 2
split_gain=48.926476955971665 19.572324628143605 34.367241515288008 19.028387896297438 23.271103739891458 15.157448565550407 14.858054839212262 10.776479494660876 10.668749136933695 6.7670734123215297 2.1481900025383034 1.5912122944212801
threshold=2.0350000000000001 7.5949999999999998 343.5 6.3949999999999996 88.450000000000003 140.94999999999999 96.14500000000001 181.5 25.734999999999999 4.8849999999999998 1.0950000000000002 22.555
decision_type=10 10 8 10 8 10 8 8 8 10 8 8
left_child=1 5 11 6 -5 10 9 -8 -7 -2 -1 -3
right_child=3 2 -4 4 -6 8 7 -9 -10 -11 -12 -13
leaf_value=0.00073256265660579857 0.00010074475192448362 0.00095747099574539356 0.0065489848783679364 0.0063036195719879361 0.00069222833413518699 -0.00047840276604386528 0.003926892816583206 0.0011358264890755545 0.00017332539834294625 0.001893965388209539 -0.00062834251595120943 -0.0005900604378180637
leaf_count=21 486 20 20 23 27 674 26 356 1366 40 1427 28
internal_value=0 -0.023087880443167445 0.19885967945137945 0.084003216117108551 0.33007309628526088 -0.027542555084891444 0.069783351681852401 0.13267964096150187 -0.0040836933590384398 0.023833146988525445 -0.060837128591633108 0.0053816988001425042
internal_count=4514 3556 68 958 50 3488 908 382 2040 526 1448 48
shrinkage=0.01


Tree=21
num_leaves=15
num_cat=0
split_feature=1 5 23 22 24 16 5 1 27 3 4 26 18 1
split_gain=58.478866579795557 29.112829429446975 17.522547509008952 29.898897649215506 14.883192324714713 17.495381311918209 8.4610266655742379 7.9464614446704482 7.6382957417688422 6.3816183716589086 8.6734331219227343 5.923987803397698 3.7790363381694405 3.0634403290450107
threshold=47.5 25.734999999999999 346.5 28.949999999999999 12.649999999999999 294.45999999999998 48.370000000000005 35.5 13.75 22.895 117.72999999999999 11.649999999999999 4.7649999999999997 55.5
decision_type=2 10 8 10 8 10 10 2 10 8 10 10 10 2
left_child=2 9 6 -4 5 -3 12 -5 -6 13 -11 -8 -1 -2
right_child=1 4 3 7 8 -7 11 -9 -10 10 -12 -13 -14 -15
leaf_value=-0.00087804648186742785 -0.00057334654656670647 0.0031638570658162023 0.0054261942555496384 -0.00056107482974425275 5.1726450983642235e-05 0.0012019058506564405 -0.00016027488590229243 0.0007479771323003787 0.0012206325711399757 0.00031459109707212814 0.0028382759338938406 0.0014974079445291566 -0.00049674697395739082 5.5873200776951168e-05
leaf_count=859 240 106 20 153 222 315 298 182 176 506 25 44 1039 329
internal_value=0 0.055491938004750649 -0.041764378648403537 0.045504656171266401 0.11503246633384126 0.16982471914815617 -0.055707657709109654 0.015187058145042677 0.05688352993211724 0.010359008632372411 0.043546839336729752 0.0053654520734294558 -0.06686534167852394 -0.020844084005377923
internal_count=4514 1919 2595 355 819 421 2240 335 398 1100 531 342 1898 569
shrinkage=0.01


Tree=22
num_leaves=14
num_cat=0
split_feature=1 14 23 10 5 24 16 10 21 17 23 5 3
split_gain=57.434099240531303 24.50502007659107 21.556894801362422 21.479457659940838 21.153138636437816 15.472998959813275 18.908446312428801 13.043180976690632 8.3142957555207389 9.2847793093756223 7.3006192957791409 5.8991860951453745 4.0591466469147406
threshold=51.5 7.4649999999999999 338.5 1.9049999999999998 31.109999999999999 12.649999999999999 291.63999999999999 6.3949999999999996 85.349999999999994 5.8449999999999998 348.5 25.615000000000002 16.975000000000001
decision_type=2 10 8 10 10 8 10 10 10 10 10 8 8
left_child=1 3 -3 11 8 6 -6 -5 9 -2 -7 -1 -10
right_child=4 2 -4 7 5 10 -8 -9 12 -11 -12 -13 -14
leaf_value=-0.0008308325037156034 -0.00019868438016912871 -0.00032203708146380267 0.0053956734978575175 0.00016133929787302598 0.0045321451719727698 0.00040157954473244665 0.0015754820024185576 0.002894571855672099 -0.00023299973258757641 0.0026738870867165985 0.0027416894284590159 -0.00039663527129184424 0.00039248944302780307
leaf_count=937 32 22 23 621 46 215 192 31 265 52 26 1439 613
internal_value=0 -0.033027912749155425 0.26897521150911891 -0.037783687359748117 0.068923567820523821 0.14034322057444562 0.21552667692688174 0.029809867932347762 0.032681789275889064 0.15859030384327857 0.065533974702022588 -0.05670195620901123 0.020501286793727355
internal_count=4514 3073 45 3028 1441 479 238 652 962 84 241 2376 878
shrinkage=0.01


Tree=23
num_leaves=10
num_cat=0
split_feature=1 10 14 3 10 5 6 1 18
split_gain=56.361548883361529 33.578394520741007 31.410345796074161 22.102572822658821 14.22019172756832 12.334831545017243 9.9997223539529614 6.3995134006078294 4.4154708321204268
threshold=47.5 5.875 7.4649999999999999 35.149999999999999 1.9049999999999998 23.585000000000001 81.254999999999995 37.5 4.7649999999999997
decision_type=2 10 10 10 10 8 10 2 8
left_child=2 3 4 5 8 -2 -5 -6 -1
right_child=1 -3 -4 6 7 -7 -8 -9 -10
leaf_value=-0.00085502180842617244 -0.00017496671122504143 0.0050585638048124063 0.0034555496983910499 0.0012353434912722838 -0.00035765716985604247 0.00057953815648420991 0.0034132329692530324 0.00057189515957232703 -0.00045484011851227164
leaf_count=893 625 27 35 214 243 1009 44 287 1137
internal_value=0 0.05442914607306 -0.04103837665099689 0.047570214944088619 -0.04668482163097077 0.029333967496768292 0.16102964967502806 0.014656845800771003 -0.063030536061315909
internal_count=4514 1919 2595 1892 2560 1634 258 530 2030
shrinkage=0.01


Tree=24
num_leaves=13
num_cat=0
split_feature=1 14 6 10 10 21 10 18 24 24 5 12
split_gain=55.357937427161758 23.417860723802551 21.187742577934397 20.693370102198784 20.629446747562504 13.663460364182363 12.652108748763013 9.5586781798335778 8.3026045379377997 8.2264381024248543 5.750005154169898 2.6625405717098651
threshold=51.5 7.4649999999999999 76.125 1.9049999999999998 2.5750000000000002 85.75 6.3949999999999996 4.8550000000000004 11.949999999999999 12.649999999999999 25.615000000000002 1.3250000000000002
decision_type=2 10 10 10 10 8 10 10 10 10 8 10
left_child=1 3 -3 10 7 -6 -5 11 -9 -7 -1 -2
right_child=4 2 -4 6 5 9 -8 8 -10 -11 -12 -13
leaf_value=-0.0008177872287422536 0.00039548509344985029 0.0056953687242844641 2.9746064430421074e-05 0.00015703419643885307 0.0043912783843586926 0.0021617513318566294 0.0028439243265849733 0.0022932336441153006 0.00066228018428358807 0.00046328452820986279 -0.00038886194249503856 -0.00016658552991514976
leaf_count=937 266 20 25 621 30 112 31 61 542 89 1439 341
internal_value=0 -0.032455886114941684 0.26193804932398823 -0.03712089885015573 0.067603734639705509 0.18127078788484602 0.029192401127711001 0.045423362300092376 0.082768285693138072 0.14160828438017248 -0.055711481498482582 0.0080382292006155494
internal_count=4514 3073 45 3028 1441 231 652 1210 603 201 2376 607
shrinkage=0.01


Tree=25
num_leaves=10
num_cat=0
split_feature=1 10 14 3 10 5 30 1 18
split_gain=54.335891388512799 32.333667491998106 30.101615609862655 21.467250426874454 13.655272675061475 11.960273174637743 9.9970463419579119 6.2595041230490338 4.3238906938759385
threshold=47.5 5.875 7.4649999999999999 35.149999999999999 1.9049999999999998 23.585000000000001 28.350000000000001 37.5 4.7649999999999997
decision_type=2 10 10 10 10 8 8 2 8
left_child=2 3 4 5 8 -2 -5 -6 -1
right_child=1 -3 -4 6 7 -7 -8 -9 -10
leaf_value=-0.00084172833563382957 -0.00017458183774433269 0.0049471275986922988 0.0033688281571555459 0.0031956515438254268 -0.00035673781127808197 0.00056823761201150579 0.0011650375321454894 0.00056242521829916365 -0.00044547166489380485
leaf_count=893 625 27 35 53 243 1009 205 287 1137
internal_value=0 0.053395377614658582 -0.040329560958318141 0.046646023542239984 -0.045879414456153414 0.028666536969325272 0.15831925535384148 0.01420784425357686 -0.0619169922239741
internal_count=4514 1919 2595 1892 2560 1634 258 530 2030
shrinkage=0.01


Tree=26
num_leaves=13
num_cat=0
split_feature=10 14 23 10 21 4 19 25 5 2 9 2
split_gain=44.365628774146749 17.981116086954202 32.806052126736951 17.103389994996867 22.15003068294552 14.247431191328165 14.00067443955477 10.385331041766023 9.9220523785450716 6.5121211982180727 2.0415962388290296 1.5754434413894165
threshold=2.0350000000000001 7.5949999999999998 343.5 6.3949999999999996 88.450000000000003 96.14500000000001 140.94999999999999 181.5 25.734999999999999 17.530000000000001 1.0950000000000002 23.555
decision_type=10 10 8 10 8 8 10 8 8 10 8 8
left_child=1 6 11 5 -5 9 10 -7 -8 -2 -1 -3
right_child=3 2 -4 4 -6 7 8 -9 -10 -11 -12 -13
leaf_value=0.00072271760514407883 0.0025080062068232878 0.00086649413939328477 0.0063167502445537187 0.0060121283659206881 0.00057755129631267518 0.0038191961852634222 -0.00046052866457484403 0.0010895291146527139 0.00016832408795328116 0.00011769671115349208 -0.00060341994754329459 -0.00066018852764764436
leaf_count=21 21 21 20 23 27 26 674 356 1366 505 1427 27
internal_value=0 -0.022042315646277851 0.18987496101700826 0.079791512344791593 0.31136744395357091 0.066263000179687614 -0.026333120900210755 0.12769247770244893 -0.0037992937216664289 0.021297568240195904 -0.058389028723004874 0.00066245399243354845
internal_count=4514 3556 68 958 50 908 3488 382 2040 526 1448 48
shrinkage=0.01


Tree=27
num_leaves=13
num_cat=0
split_feature=1 14 7 10 10 21 10 18 16 28 5 1
split_gain=53.11784202366939 22.179973464122639 20.687763534487488 19.5793063585647 19.518192787349108 13.133301492508537 12.011696592336332 9.1975557650076443 8.3440540362332669 8.0298028946725459 5.5045627592580431 2.6062092665340701
threshold=51.5 7.4649999999999999 47.245000000000005 2.5750000000000002 1.9049999999999998 85.75 6.3949999999999996 4.8550000000000004 266.62 0.20050000000000001 25.615000000000002 64.5
decision_type=2 10 10 10 10 8 10 10 8 8 8 2
left_child=1 4 -3 7 10 -5 -6 11 -9 -7 -1 -2
right_child=3 2 -4 5 6 9 -8 8 -10 -11 -12 -13
leaf_value=-0.0008000266775036991 -8.6495553291899064e-05 0.005469481977726896 -9.7984587615123202e-05 0.0042844179827645004 0.00014789291975673925 0.0035857008277407989 0.0027574559814298621 0.0023962210635476676 0.00065773388342177321 0.0010645703744984513 -0.00038003354285809886 0.00054014829140504111
leaf_count=937 447 21 24 30 621 25 31 53 550 176 1439 160
internal_value=0 -0.031825417947346155 0.25373264786369709 0.066154193624320262 -0.036383519198263291 0.17664566376830296 0.027963110377493688 0.044527290288439221 0.081119880259012317 0.13775731310675057 -0.054468109581912755 0.00784642803791606
internal_count=4514 3073 45 1441 3028 231 652 1210 603 201 2376 607
shrinkage=0.01


Tree=28
num_leaves=10
num_cat=0
split_feature=1 10 14 3 10 23 30 1 18
split_gain=52.157953308201115 30.623746639884164 28.672467315697162 20.709790581143615 12.813479177158811 10.776907837476873 9.7217830511248096 6.1183000346023819 4.1526020692791263
threshold=47.5 5.875 7.4649999999999999 35.149999999999999 1.9049999999999998 334.5 28.350000000000001 37.5 4.7649999999999997
decision_type=2 10 10 10 10 10 8 2 8
left_child=2 3 4 5 8 -2 -5 -6 -1
right_child=1 -3 -4 6 7 -7 -8 -9 -10
leaf_value=-0.0008239000869551239 -9.9775202129318165e-05 0.0047953793406373974 0.0032724666429364475 0.0031381982829275842 -0.0003614627494584828 0.00058793995643550122 0.0011396692890872496 0.00054684634984302708 -0.00043526840524846098
leaf_count=893 734 27 35 53 243 900 205 287 1137
internal_value=0 0.052263970404949969 -0.039551294044618025 0.045668535134680589 -0.044992158057504908 0.027999186620572138 0.15519002167026077 0.013168547864398297 -0.060554031138982577
internal_count=4514 1919 2595 1892 2560 1634 258 530 2030
shrinkage=0.01


Tree=29
num_leaves=15
num_cat=0
split_feature=1 23 22 5 10 24 16 10 21 26 23 2 5 3
split_gain=51.175054722758958 19.456042008980454 31.406671639414562 19.074043459371318 15.076490311114355 14.791021233059581 18.238307843504366 13.451625428836877 7.9523103364370593 9.6530070120701037 7.0295790550601289 5.7655173933163102 4.1179535195074166 3.7829361092406444
threshold=51.5 346.5 28.850000000000001 31.109999999999999 4.5499999999999998 12.649999999999999 291.63999999999999 2.145 85.349999999999994 11.25 348.5 40.314999999999998 25.945 16.975000000000001
decision_type=2 8 10 10 10 8 10 10 10 10 10 8 8 8
left_child=1 7 -3 8 -4 6 -5 12 9 -2 -7 -9 -1 -10
right_child=3 2 4 5 -6 10 -8 11 13 -11 -12 -13 -14 -15
leaf_value=-0.0008026301881038923 0.00055138719705844375 0.0055928038671158743 7.4404272456913748e-05 0.0043767834600357018 0.0037485021643517279 0.00034555912511924819 0.0014876621987990183 3.9148483210166262e-05 -0.00023760850240498653 0.0035801833156850725 0.0026323446144464469 0.0014381177814571757 -0.00043014514133556391 0.00036589317484441163
leaf_count=915 57 20 392 46 20 215 192 350 265 27 26 61 1315 613
internal_value=0 -0.031266467064250229 0.051841540163747361 0.064874688973496353 0.026235369195899718 0.1324023354695365 0.2055630571973647 -0.045012572031797871 0.030442436976179373 0.15328279361894218 0.059424929879464815 0.024745659892744441 -0.058207971010709091 0.018527155505757297
internal_count=4514 3073 432 1441 412 479 238 2641 962 84 241 411 2230 878
shrinkage=0.01


Tree=30
num_leaves=13
num_cat=0
split_feature=10 23 14 4 10 21 16 25 30 0 10 4
split_gain=41.545206727431292 17.371741939452427 23.975908943319101 13.161878243688454 12.994909158717483 21.23191825820463 11.340615762064246 14.990618337656958 8.276213914736779 7.3763128168651697 6.5896017695093851 4.529065269523934
threshold=2.5750000000000002 347.5 7.4249999999999998 92.944999999999993 6.3949999999999996 88.450000000000003 392.88999999999999 226.5 26.75 9.9999996826552254e-21 1.6349999999999998 103.44499999999999
decision_type=10 8 10 10 10 8 10 10 8 2 10 10
left_child=1 3 8 9 6 -6 7 -2 -3 -1 -5 -8
right_child=4 2 -4 10 5 -7 11 -9 -10 -11 -12 -13
leaf_value=-0.00059028806799276551 0.0029667095070153495 0.0017606073481590443 0.0049224901192001392 -7.9439244618535588e-05 0.0058030821626745875 0.00050896835045134768 -5.7806776232462424e-05 0.00080199506206182249 0.00013952031549386388 -0.00013365501692437983 0.00071056064709788314 0.0011492789481254027
leaf_count=1606 79 67 21 523 23 27 216 189 344 1054 292 73
internal_value=0 -0.016248244313241976 0.063511267132971158 -0.026261489330601226 0.10138998095466913 0.29882888077071401 0.082492045136282749 0.14431455617376224 0.040461473702934889 -0.040797921050256328 0.020591368978077246 0.024780647756465789
internal_count=4514 3907 432 3475 607 50 557 268 411 2660 815 289
shrinkage=0.01


Tree=31
num_leaves=10
num_cat=0
split_feature=1 10 14 5 16 10 0 1 5
split_gain=50.001162430022255 29.109468206290433 27.743482406784235 18.877296670863732 12.884839983942051 12.045047223936116 6.5152338098310256 6.0070091831544508 3.6354412817185917
threshold=47.5 5.875 7.4649999999999999 23.585000000000001 281.98000000000002 1.9049999999999998 9.9999996826552254e-21 37.5 25.615000000000002
decision_type=2 10 10 10 8 10 2 2 8
left_child=2 3 5 6 -5 8 -2 -7 -1
right_child=1 -3 -4 4 -6 7 -8 -9 -10
leaf_value=-0.00081697017386400705 -0.00019608185140649527 0.0046572210696369789 0.0032120792225561082 0.0022961851761103113 0.00070907799192651587 -0.00036642637229599003 0.00051949134745643858 0.00053319162076458093 -0.00044726844698886147
leaf_count=802 664 27 35 100 784 243 344 287 1228
internal_value=0 0.051122154911957277 -0.038762855079690524 0.044668212533903573 0.089002836442761302 -0.044131686947465588 0.0049192980205894623 0.012217740913134276 -0.059244126829926885
internal_count=4514 1919 2595 1892 884 2560 1008 530 2030
shrinkage=0.01


Tree=32
num_leaves=10
num_cat=0
split_feature=1 10 14 3 10 5 6 23 18
split_gain=48.999868021878825 28.368934436773092 27.125949435214608 19.72009072756077 11.8161456064656 11.088453953558286 9.5221841175525128 5.979480270523597 3.9809579542242091
threshold=47.5 5.875 7.4649999999999999 35.149999999999999 1.9049999999999998 23.585000000000001 81.254999999999995 337.5 4.7649999999999997
decision_type=2 10 10 10 10 8 10 10 8
left_child=2 3 4 5 8 -2 -5 -6 -1
right_child=1 -3 -4 6 7 -7 -8 -9 -10
leaf_value=-0.00080097504322823533 -0.00017485474896031692 0.0045891177764355593 0.0031697089816079571 0.0011436051668123556 -0.00037685511711299047 0.00054001103374751299 0.0032570890634822853 0.00052246724191343393 -0.00042006059681211968
leaf_count=893 625 27 35 214 237 1009 44 293 1137
internal_value=0 0.050584609910452535 -0.038390345334147633 0.044201495174500977 -0.043709825981188985 0.02694800623249843 0.15085285807941312 0.012093976324488619 -0.058686633931553857
internal_count=4514 1919 2595 1892 2560 1634 258 530 2030
shrinkage=0.01


Tree=33
num_leaves=13
num_cat=0
split_feature=1 14 4 10 10 21 10 18 16 24 0 1
split_gain=48.190417666177694 20.009874327275057 19.852220013700297 17.932825369883012 17.44351946401196 12.431032280540677 10.418507328176787 8.6814435644463508 8.046554076411411 7.8859518636125472 5.9502367982600077 2.54068546553601
threshold=51.5 7.4649999999999999 88.525000000000006 2.5750000000000002 2.145 85.75 6.3949999999999996 4.8550000000000004 266.62 12.649999999999999 9.9999996826552254e-21 64.5
decision_type=2 10 8 10 10 8 10 10 8 10 2 2
left_child=1 4 -3 7 10 -5 -6 11 -9 -7 -1 -2
right_child=3 2 -4 5 6 9 -8 8 -10 -11 -12 -13
leaf_value=-0.0006697640682143286 -9.7646259881244027e-05 -6.8564386389340258e-05 0.0053706404551838848 0.0041162314475510966 0.0001959351768122476 0.002029464236891793 0.0026312115886194874 0.0023283196392151753 0.0006256019313341715 0.00037446696969653791 -0.0002475613064361734 0.00052055456893546038
leaf_count=1485 447 25 20 30 489 112 31 53 550 89 1023 160
internal_value=0 -0.030384789600113947 0.23924402664612024 0.062865050187407623 -0.03474634280066323 0.16818524370239854 0.03510153439485348 0.042148331651944967 0.077624857145596013 0.13038629833429566 -0.049660990992942224 0.0065179177259246362
internal_count=4514 3073 45 1441 3028 231 520 1210 603 201 2508 607
shrinkage=0.01


Tree=34
num_leaves=9
num_cat=0
split_feature=1 10 14 3 2 5 4 10
split_gain=47.236988480221626 27.3300323152679 26.055261987502202 19.151756283353507 12.079575552135204 10.846158728740722 9.1887252144296809 8.8720905583671588
threshold=47.5 5.875 7.4649999999999999 35.149999999999999 68.319999999999993 23.585000000000001 89.230000000000004 1.9049999999999998
decision_type=2 10 10 10 10 8 10 10
left_child=2 3 4 5 7 -2 -5 -1
right_child=1 -3 -4 6 -6 -7 -8 -9
leaf_value=-0.00058788914404235538 -0.0001761366770014514 0.0044902822987346463 0.0030955450832993721 0.00047613444602157684 0.0025449851064922018 0.00053072916159924838 0.0020932822495470641 3.1037384193891647e-05
leaf_count=2017 625 27 35 98 24 1009 160 519
internal_value=0 0.049625794970042374 -0.037724342275574342 0.043344765926018915 -0.042956395355417933 0.026335043873585966 0.14832060426361787 -0.04583101103457999
internal_count=4514 1919 2595 1892 2560 1634 258 2536
shrinkage=0.01


Tree=35
num_leaves=13
num_cat=0
split_feature=1 14 7 10 10 21 23 19 17 28 20 27
split_gain=46.450492044482822 19.130195318616984 19.436757721673622 17.295234440486588 16.934507291588414 12.046548043917333 11.705022266895611 11.086902050021571 8.9354104476606686 7.7907146649531036 6.032570305477841 5.6489442541724948
threshold=51.5 7.4649999999999999 47.245000000000005 2.5750000000000002 4.5499999999999998 85.75 346.5 153.34999999999999 8.1550000000000011 0.20050000000000001 0.41549999999999998 12.449999999999999
decision_type=2 10 10 10 10 8 10 8 10 8 10 10
left_child=1 4 -3 8 7 -5 -6 -1 10 -7 -2 -10
right_child=3 2 -4 5 6 9 -8 -9 11 -11 -12 -13
leaf_value=-0.00060873191965001429 -0.00021309524396581603 0.0051358175779530613 -0.00021477868489023569 0.0040387195021837682 0.00058864244820905495 0.0034402512775368061 0.0041630938097669745 -7.5513522294709063e-05 0.00038929428864044595 0.00096993331142049917 0.00048040527193610839 0.0019748406817978281
leaf_count=1779 319 21 24 30 61 25 21 1167 67 176 728 96
internal_value=0 -0.029856800811798114 0.23311407431876485 0.06166749796099967 -0.034134510398696923 0.16493773937915984 0.15164972890449699 -0.039581681331049091 0.041313695632079372 0.12772120197154774 0.027059637045893706 0.13251436198646396
internal_count=4514 3073 45 1441 3028 231 82 2946 1210 201 1047 163
shrinkage=0.01


Tree=36
num_leaves=14
num_cat=0
split_feature=1 23 22 5 21 5 25 1 14 24 1 1 11
split_gain=45.559077656567865 23.110944242054146 33.409860434385493 15.578407447367937 13.450048541505566 12.000053036368392 11.667517954699321 10.102847468979018 6.3573585600402769 6.1859402432308226 5.3359361467294546 3.2415389474206733 3.1787812611473143
threshold=53.5 346.5 28.949999999999999 25.734999999999999 84.75 29.770000000000003 234.5 35.5 6.1550000000000002 11.949999999999999 32.5 71.5 4.4450000000000003
decision_type=2 8 8 10 8 10 8 2 8 10 2 2 8
left_child=1 5 -3 8 -5 12 -6 -4 11 -10 -7 -2 -1
right_child=3 2 7 4 6 10 -8 -9 9 -11 -12 -13 -14
leaf_value=-0.00093869192694295139 -0.00028667009083115509 0.0057344031608096667 -0.00052533343282914916 0.0039310166263553008 0.0017138844970904824 -0.00070175486215362667 0.00045140184308661694 0.00080728497471966936 0.0022033719175990007 0.00047013460613724883 0.00019367792846055592 0.00079212081895886828 -0.00050219475998779912
leaf_count=373 307 21 155 29 243 146 263 298 42 263 650 59 1665
internal_value=0 -0.026057141839511435 0.060087799160692075 0.06931026360541645 0.12181321044912129 -0.040682899336334524 0.10584597625245515 0.035641939018403936 0.026253124888024167 0.071000833128997951 0.003093296495761236 -0.011270479329848877 -0.058164455685109369
internal_count=4514 3308 474 1206 535 2834 506 453 671 305 796 366 2038
shrinkage=0.01


Tree=37
num_leaves=15
num_cat=0
split_feature=1 5 24 16 23 21 1 5 4 21 23 1 1 27
split_gain=44.793216749762991 22.914687883032364 16.788800860562752 24.382657157687014 15.358307044349203 24.990854978657225 7.3437976880421694 6.6989301737403153 6.5094915832472573 7.815889461996389 5.5349283388638177 3.4077049051570993 3.1320612905776528 2.9953463675589869
threshold=47.5 31.109999999999999 12.649999999999999 291.63999999999999 346.5 82.849999999999994 35.5 48.370000000000005 99.284999999999997 85.349999999999994 348.5 55.5 32.5 12.949999999999999
decision_type=2 10 8 10 8 10 2 10 8 10 10 2 2 8
left_child=4 8 3 -3 7 -6 -7 12 11 -10 -4 -2 -1 -9
right_child=1 2 10 -5 5 6 -8 13 9 -11 -12 -13 -14 -15
leaf_value=-0.00084758560596453786 -0.00047262075582640682 0.0040102671397682218 0.00021498011441621549 0.0012034495087931132 0.0048277105015988161 -0.00052153206813009153 0.00073863618196389879 -0.0003460551144677711 0.0016789485453115476 0.00027865824247580239 0.001869432611842913 0.0001458730892229001 -0.00047814805688001596 0.00044398965821444095
leaf_count=622 304 66 269 258 21 154 180 174 80 569 40 333 1276 168
internal_value=0 0.048269077313254055 0.1126601787562595 0.17843928608353971 -0.036778366397665692 0.044860560306547108 0.016111449914214884 -0.049910274028859003 0.01564578886848457 0.045242145088995947 0.043080924948374975 -0.014732182651666044 -0.059910775850730499 0.0043701004500285431
internal_count=4514 1919 633 324 2595 355 334 2240 1286 649 309 637 1898 342
shrinkage=0.01


Tree=38
num_leaves=15
num_cat=0
split_feature=1 23 22 10 28 4 27 10 1 3 19 2 2 1
split_gain=43.939882878995967 22.25298609850519 32.017371433109119 15.687392908685926 14.430090911781392 16.399439047344217 12.669675422583371 12.175696947978167 9.7757785956611727 9.5288996381025193 7.9059628875886983 6.1870629284566254 4.9495602949945248 4.3229604087162912
threshold=53.5 346.5 28.949999999999999 2.0649999999999999 0.20050000000000001 84.215000000000003 13.75 2.145 39.5 41.519999999999996 151.5 18.574999999999999 40.314999999999998 32.5
decision_type=2 8 8 10 8 10 10 10 2 10 10 10 8 2
left_child=1 7 -3 9 5 -5 -6 13 -4 11 -11 -2 -9 -1
right_child=3 2 8 4 6 -7 -8 12 -10 10 -12 -13 -14 -15
leaf_value=-0.00082825699618976434 0.00086193625009380373 0.0055898921812358596 -0.00031342667002093728 0.0011019747488322852 0.00046696002191339193 0.006389781676087003 0.0023123796775963235 4.970490810556241e-05 0.00092919175749830594 0.00044620474138877097 0.0034241550610842448 4.8418105710503118e-05 0.00129104320143977 -0.00041473825103339746
leaf_count=624 227 21 214 20 178 20 99 381 239 30 31 601 66 1763
internal_value=0 -0.025612046053538472 0.058858121821577146 0.068009760422003851 0.14680702758263797 0.37852133076149946 0.11313272078104869 -0.039980625175253512 0.034839719908312167 0.039155038609826276 0.19670677189805647 0.027179150128520145 0.02342234203464346 -0.052236293673671781
internal_count=4514 3308 474 1206 317 40 277 2834 453 889 61 828 447 2387
shrinkage=0.01


Tree=39
num_leaves=9
num_cat=0
split_feature=1 10 14 3 2 6 5 10
split_gain=43.141411884018737 25.89603635351579 24.832244987182381 17.925199718502753 11.615537477442135 10.620137983473175 10.15929593265604 8.214014546805263
threshold=47.5 5.875 7.4649999999999999 35.594999999999999 68.319999999999993 81.254999999999995 23.585000000000001 1.9049999999999998
decision_type=2 10 10 10 10 10 8 10
left_child=2 3 4 6 7 -5 -2 -1
right_child=1 -3 -4 5 -6 -7 -8 -9
leaf_value=-0.00056578667196466423 -0.00017702825040296965 0.0043408016306439373 0.0030189515910559656 0.0010534937567409435 0.0024988656515236123 0.0033199859018855312 0.00050622785257153121 2.9862414363501603e-05
leaf_count=2017 625 27 35 212 24 42 1013 519
internal_value=0 0.047332660717013891 -0.036123048237471499 0.041199881999367291 -0.041254650855376579 0.1434034735766094 0.024881312856899759 -0.044083803729540703
internal_count=4514 1919 2595 1892 2560 254 1638 2536
shrinkage=0.01


Tree=40
num_leaves=14
num_cat=0
split_feature=10 23 14 4 4 13 21 25 31 30 2 5 13
split_gain=35.799373005396582 15.755193123182737 22.241166025970102 11.600382708973635 11.33631592320576 17.401650073504008 9.616939781074322 12.9659955834641 8.346383129997097 7.9688164640829005 7.0300212411816574 6.4300079703154154 6.1075640646476685
threshold=2.5750000000000002 347.5 7.4249999999999998 92.944999999999993 96.14500000000001 5.0299999999999994 85.650000000000006 203.5 6.6500000000000004 26.75 18.649999999999999 21.395 4.4749999999999996
decision_type=10 8 10 10 8 10 8 8 10 8 10 8 10
left_child=1 3 9 11 5 10 8 -8 -6 -3 -2 -1 -5
right_child=4 2 -4 12 6 -7 7 -9 -10 -11 -12 -13 -14
leaf_value=-0.00069162731010961279 0.0025678804382415149 0.0017112935180523987 0.0047047027560741571 6.7928268066937575e-05 0.0048278298829902682 0.0037468095820692299 0.0034325167584062068 0.0007428594482073328 0.0013734844975062594 0.00012359353531895577 6.649910455544477e-06 -0.0002418893833020301 0.0012641745323167749
leaf_count=849 20 67 21 731 26 25 37 180 22 344 297 1811 84
internal_value=0 -0.015147061585536222 0.060692042505412873 -0.024708656961630819 0.093734548977080459 0.043447256303927172 0.158011954539303 0.1205917603701944 0.32495490086557305 0.03837998825686418 0.016748376325082658 -0.038392723478583787 0.019227816837841877
internal_count=4514 3907 432 3475 607 342 265 217 48 411 317 2660 815
shrinkage=0.01


Tree=41
num_leaves=15
num_cat=0
split_feature=1 23 22 10 28 4 27 10 1 3 20 21 1 1
split_gain=42.211739526611147 21.389232092396576 31.027728564274874 14.927758560133729 13.974341162414113 15.661517225496297 12.277097064486313 11.486351915994572 9.4434664823845171 9.1130757791524886 7.9917237825662806 4.655439359438807 4.4431284668968836 4.2052441563208944
threshold=53.5 346.5 28.949999999999999 2.0649999999999999 0.20050000000000001 84.215000000000003 13.75 2.145 39.5 41.519999999999996 0.45950000000000002 85.25 37.5 32.5
decision_type=2 8 8 10 8 10 10 10 2 10 10 8 2 2
left_child=1 7 -3 9 5 -5 -6 13 -4 11 -11 -2 -9 -1
right_child=3 2 8 4 6 -7 -8 12 -10 10 -12 -13 -14 -15
leaf_value=-0.00081349680337124445 0.0013757709124749948 0.0054819247033146236 -0.00031159225609255056 0.001081777738508063 0.00044794917050330413 0.0062348095546877185 0.0022615572007787833 -0.00037810736479740217 0.00090926423369154942 0.00058045164275197085 0.003585472508451917 0.00017765926433739633 0.00051392646601524728 -0.00040535244406390071
leaf_count=624 61 21 214 20 178 20 99 147 239 34 27 767 300 1763
internal_value=0 -0.025127101041109826 0.05762764858902366 0.066597327427703731 0.14332203540278818 0.37065165679200313 0.1101832961514938 -0.039231261427242002 0.033925326510359059 0.038435430732433301 0.19220295990604741 0.026708410580742099 0.022305988391959203 -0.051152891929434292
internal_count=4514 3308 474 1206 317 40 277 2834 453 889 61 828 447 2387
shrinkage=0.01


Tree=42
num_leaves=13
num_cat=0
split_feature=10 23 14 4 10 21 16 25 30 5 10 4
split_gain=34.479550433864816 15.177574571064397 21.632957965870485 11.239710092694997 11.051657494640786 19.474157051124429 10.56629856021701 13.737448688479382 7.7444425298612707 6.2937347274122502 5.9520587693638509 4.3507737373977626
threshold=2.5750000000000002 347.5 7.4249999999999998 92.944999999999993 6.3949999999999996 88.450000000000003 392.88999999999999 226.5 26.75 21.395 1.6349999999999998 103.44499999999999
decision_type=10 8 10 10 10 8 10 10 8 8 10 10
left_child=1 3 8 9 6 -6 7 -2 -3 -1 -5 -8
right_child=4 2 -4 10 5 -7 11 -9 -10 -11 -12 -13
leaf_value=-0.0006821283309588602 0.002784520135869762 0.0016814347286993026 0.0046249959766797013 -8.1849063918660521e-05 0.0053703078646009173 0.00035470799624037942 -0.00011058894217411311 0.00072474052160559246 0.00011798665084071146 -0.00023699108874759283 0.00066797561507832162 0.0010684963429660227
leaf_count=849 79 67 21 523 23 27 216 189 344 1811 292 73
internal_value=0 -0.014880426712538664 0.05950739158118841 -0.02427372132375975 0.091900082799440438 0.27198121247439561 0.074430809769873416 0.13378092997601215 0.037464689512726725 -0.037752610681686956 0.018963989696166618 0.0188369778449076
internal_count=4514 3907 432 3475 607 50 557 268 411 2660 815 289
shrinkage=0.01


Tree=43
num_leaves=15
num_cat=0
split_feature=1 23 22 10 28 11 10 18 1 3 20 2 2 1
split_gain=41.12599832781018 20.663255416657588 30.139005046828302 14.305656405560779 13.484714008907858 14.354284037276589 11.001629297356942 10.021581520623478 9.2617506244484833 8.8818347021878221 7.7792816036166688 6.0455309033105387 4.7818581602663413 4.1303448802428875
threshold=53.5 346.5 28.949999999999999 2.0649999999999999 0.20050000000000001 5.415 2.145 5.1349999999999998 35.5 41.519999999999996 0.45950000000000002 18.574999999999999 40.314999999999998 32.5
decision_type=2 8 8 10 8 10 10 10 2 10 10 10 8 2
left_child=1 6 -3 9 5 -5 13 -6 -4 11 -11 -2 -8 -1
right_child=3 2 8 4 7 -7 12 -9 -10 10 -12 -13 -14 -15
leaf_value=-0.0008031839925024349 0.00084817101601712545 0.0053835492631484618 -0.00051494252018315231 0.0011340932396486406 0.00048655034328559308 0.0060540329405678536 3.3633195858203463e-05 0.0021201813711847883 0.00076052706401991837 0.00057319690634569033 0.003534471385737183 4.442512714084452e-05 0.0012518093050565358 -0.0003984850901324961
leaf_count=624 227 21 155 20 177 20 381 100 298 34 27 601 66 1763
internal_value=0 -0.024816879141067592 0.056466882092501947 0.065696401021549111 0.1406991694481432 0.36336724907453355 -0.038693320596564711 0.10812697663732149 0.033054631409009133 0.038111841893544343 0.18974954002230604 0.026525469660720669 0.021499883106142224 -0.050373358998134207
internal_count=4514 3308 474 1206 317 40 2834 277 453 889 61 828 447 2387
shrinkage=0.01


Tree=44
num_leaves=9
num_cat=0
split_feature=1 10 14 3 2 6 23 0
split_gain=40.41144501886729 24.311245625197735 23.882459049267897 16.746583727980859 11.161312095823572 10.186855411982773 9.7801120189102626 8.1485671868726008
threshold=47.5 5.875 7.4649999999999999 35.594999999999999 68.319999999999993 81.254999999999995 334.5 9.9999996826552254e-21
decision_type=2 10 10 10 10 10 10 2
left_child=2 3 4 6 7 -5 -2 -1
right_child=1 -3 -4 5 -6 -7 -8 -9
leaf_value=-0.00066362430530559127 -0.00012126702813874734 0.0041839093034979217 0.0029567330404728885 0.0010107338799755386 0.0024473555896456149 0.0032230561725933304 0.00053183038432636962 -0.00018003757525416323
leaf_count=1314 736 27 35 212 24 42 902 1222
internal_value=0 0.045747979435137684 -0.035009579906882478 0.039781636605679377 -0.040060213461091787 0.13832404465975187 0.02399115710754287 -0.042842765098142277
internal_count=4514 1919 2595 1892 2560 254 1638 2536
shrinkage=0.01


Tree=45
num_leaves=15
num_cat=0
split_feature=1 23 14 10 10 28 27 10 3 20 9 2 2 18
split_gain=39.697247742162773 20.11026941672656 24.105670365103347 14.07293746500709 13.846637629924643 13.105720218126194 11.82487314791689 10.688526087968775 8.5153039470458438 7.5615373391124177 7.4875695480971807 5.9173590960509941 4.6324523151601733 4.0383408010106479
threshold=53.5 346.5 7.0700000000000003 4.5949999999999998 2.0649999999999999 0.20050000000000001 13.75 2.145 41.519999999999996 0.45950000000000002 1.5150000000000001 18.574999999999999 40.314999999999998 4.7649999999999997
decision_type=2 8 10 10 10 8 10 10 10 10 8 10 8 10
left_child=1 7 3 -3 8 10 -7 13 11 -10 -6 -2 -9 -1
right_child=4 2 -4 -5 5 6 -8 12 9 -11 -12 -13 -14 -15
leaf_value=-0.00068902164501537244 0.00083625920592803678 0.00016750497419890616 0.0048845508257323988 0.0033873126681072834 0.0053183007189112194 0.00041929401278663499 0.0021952236470807389 3.3497771286853776e-05 0.00055018422861392434 0.0034640991080566799 0.0017731064342466341 4.1428395887857094e-05 0.0012315731086981565 -0.0003362736722464247
leaf_count=1089 227 430 20 24 20 178 99 381 34 27 20 601 66 1298
internal_value=0 -0.02440156665091793 0.055752506336902749 0.034912570688767325 0.064494336082979789 0.13818816249243943 0.10606900775729854 -0.03810282218173721 0.037351287352637715 0.18554892833591685 0.35716740228553101 0.025993531150499675 0.021214215016972762 -0.049625138204506737
internal_count=4514 3308 474 454 1206 317 277 2834 889 61 40 828 447 2387
shrinkage=0.01


Tree=46
num_leaves=9
num_cat=0
split_feature=1 10 14 3 2 6 5 0
split_gain=39.012970824037623 23.464865963670579 23.156186814679518 16.144493395218209 10.847578718990075 9.8687169780702355 9.5400277831833247 7.8591563277574394
threshold=47.5 5.875 7.4649999999999999 35.594999999999999 68.319999999999993 81.254999999999995 23.585000000000001 9.9999996826552254e-21
decision_type=2 10 10 10 10 10 8 2
left_child=2 3 4 6 7 -5 -2 -1
right_child=1 -3 -4 5 -6 -7 -8 -9
leaf_value=-0.00065275960239386899 -0.00017751231114880215 0.0040990395579057559 0.0029053510861910183 0.00099001497876121248 0.002409191483556913 0.0031630598456369482 0.00048432190458868804 -0.00017767451236002665
leaf_count=1314 625 27 35 212 24 42 1013 1222
internal_value=0 0.04491730022261313 -0.034423200291201869 0.03904254358266003 -0.039409538735559226 0.13567194500467852 0.023529443900402722 -0.042158831965512483
internal_count=4514 1919 2595 1892 2560 254 1638 2536
shrinkage=0.01


Tree=47
num_leaves=14
num_cat=0
split_feature=1 23 22 10 21 28 10 1 3 20 2 2 1
split_gain=38.333646518587322 19.588902444911149 29.172547820816483 13.399190896034536 13.023963248298188 10.577936418828028 10.384951238601968 8.9144041659690743 8.1622533206015202 7.3511392873026082 5.7610070143914136 4.4878804405824759 3.9946462665418601
threshold=53.5 346.5 28.949999999999999 2.0649999999999999 85.75 0.21050000000000002 2.145 35.5 41.519999999999996 0.45950000000000002 18.574999999999999 40.314999999999998 32.5
decision_type=2 8 8 10 8 8 10 2 10 10 10 8 2
left_child=1 6 -3 8 -5 -6 12 -4 10 -10 -2 -8 -1
right_child=3 2 7 4 5 -7 11 -9 9 -11 -12 -13 -14
leaf_value=-0.00078380859682533155 0.000823140027030245 0.0052742263258261195 -0.00051012453197375653 0.0036412306676489596 0.0027854310508242325 0.00068146319876640914 3.3277723938127734e-05 0.00074102777236492267 0.00052778335806843274 0.0033954583569007881 3.9247989455614785e-05 0.0012116160937397558 -0.00038543283718823546
leaf_count=624 227 21 155 36 49 232 381 298 34 27 601 66 1763
internal_value=0 -0.023997503903830507 0.05507835062523548 0.063328513881622181 0.13572928959585503 0.10519232852271872 -0.037531128238059305 0.031989360986802613 0.036622758456921041 0.18144925302392301 0.02549031190684856 0.020924190040387501 -0.048897971886582091
internal_count=4514 3308 474 1206 317 281 2834 453 889 61 828 447 2387
shrinkage=0.01


Tree=48
num_leaves=9
num_cat=0
split_feature=1 10 14 3 2 18 30 0
split_gain=37.585296043064574 22.720800799691943 22.602909341651717 15.582140478015569 10.565814961741761 9.3362309794223481 9.0121134305106416 7.6230810468962957
threshold=47.5 5.875 7.4649999999999999 35.149999999999999 68.319999999999993 5.0949999999999998 28.350000000000001 9.9999996826552254e-21
decision_type=2 10 10 10 10 10 8 2
left_child=2 3 4 5 7 -2 -5 -1
right_child=1 -3 -4 6 -6 -7 -8 -9
leaf_value=-0.00064252771901761362 1.7701480107142511e-05 0.0040221405217143258 0.0028676148157627725 0.00283076832653772 0.0023753193252465965 0.00070641114916942648 0.00092832294149533859 -0.00017446860901961474
leaf_count=1314 1138 27 35 53 24 496 205 1222
internal_value=0 0.04405503542169513 -0.033812686665571037 0.038262909345259 -0.038749567936060055 0.022874981914562654 0.13221456669548037 -0.041468543282100499
internal_count=4514 1919 2595 1892 2560 1634 258 2536
shrinkage=0.01


Tree=49
num_leaves=14
num_cat=0
split_feature=1 23 22 5 21 25 10 1 3 4 2 1 27
split_gain=37.002119268429226 19.078600215426221 28.376834309892342 13.039419366271446 12.407845935910537 10.700770599888429 10.08957329172911 8.6773635438280472 4.8337795995592927 7.9149771299217209 4.3547831675895203 3.8894676541803683 2.4445000624983346
threshold=53.5 346.5 28.949999999999999 25.734999999999999 84.75 234.5 2.145 35.5 22.895 113.66499999999999 40.314999999999998 32.5 15.350000000000001
decision_type=2 8 8 10 8 8 10 2 8 10 8 2 10
left_child=1 6 -3 8 -5 -6 11 -4 12 -10 -8 -1 -2
right_child=3 2 7 4 5 -7 10 -9 9 -11 -12 -13 -14
leaf_value=-0.00077287125290913077 -0.00022696524486976843 0.0051891435167908872 -0.00050353551792228291 0.0036802397909690664 0.0015687052632314005 0.00036593975263653704 3.297440139965543e-05 0.00073095973401169603 0.00043505622397881397 0.0030280784359191545 0.0011928803074269783 -0.00037957135482343375 0.00070515214065016861
leaf_count=624 325 21 155 29 243 263 381 298 265 22 66 1763 59
internal_value=0 -0.023595292795941653 0.054412166895231366 0.062171673571902362 0.10987092235453613 0.094556232892807485 -0.036962393407967871 0.03158820092113921 0.022767385865225209 0.063679231250543394 0.020642813297123596 -0.048175528890199118 -0.008332499737538324
internal_count=4514 3308 474 1206 535 506 2834 453 671 287 447 2387 384
shrinkage=0.01


Tree=50
num_leaves=14
num_cat=0
split_feature=1 23 14 10 21 5 28 20 10 3 20 2 11
split_gain=36.251502876913733 18.729090228709818 21.557032031958919 12.876385974518314 12.468245299574015 11.335709822736501 10.24304705264128 9.929898916810366 7.9676916565490226 7.7675187361960099 7.1552619051235329 5.6433355900835149 2.9771461648186559
threshold=53.5 347.5 7.0250000000000004 2.0649999999999999 85.75 29.770000000000003 0.21050000000000002 0.49750000000000005 6.3949999999999996 41.519999999999996 0.45950000000000002 18.574999999999999 4.415
decision_type=2 8 10 10 8 10 8 10 10 10 10 10 8
left_child=1 5 7 9 -5 12 -6 -3 -7 11 -11 -2 -1
right_child=3 2 -4 4 6 8 -8 -9 -10 10 -12 -13 -14
leaf_value=-0.00088195790366089215 0.00080651402409693553 0.00013417452206292656 0.0045794219679336301 0.0035503016771770389 0.0027261574367334501 -1.0005633415535297e-05 0.00066008593296071501 0.0022931189939202241 0.0024527633342359759 0.00049448148757249004 0.0033171162141669348 3.1186816341139011e-05 -0.0004507617193266359
leaf_count=355 227 335 21 36 49 808 232 42 22 34 27 601 1725
internal_value=0 -0.023365079174520409 0.062032401081801351 0.061511115677733853 0.1323637010212427 -0.035354573197517995 0.10246663609521829 0.037854312336991984 0.0061364554663346895 0.035331402576805365 0.17628649705853877 0.024459920659381681 -0.052387118959796086
internal_count=4514 3308 398 1206 317 2910 281 377 830 889 61 828 2080
shrinkage=0.01


Tree=51
num_leaves=9
num_cat=0
split_feature=1 14 10 3 2 6 23 0
split_gain=35.670369136027418 21.884434894009893 21.797112495867914 14.899267376668021 10.244836542576518 9.4997973328522285 9.2218055696487191 7.2770861189988167
threshold=47.5 7.4649999999999999 5.875 35.594999999999999 68.319999999999993 81.254999999999995 334.5 9.9999996826552254e-21
decision_type=2 10 10 10 10 10 10 2
left_child=1 4 3 6 7 -5 -2 -1
right_child=2 -3 -4 5 -6 -7 -8 -9
leaf_value=-0.00062814114871863878 -0.00012805719142954956 0.0028185021616518868 0.0039243558797511782 0.00093810281195265009 0.0023379035079636331 0.0030625113871620992 0.00050565197507680963 -0.0001706103153304223
leaf_count=1314 736 35 27 212 24 42 902 1222
internal_value=0 -0.032973838779340098 0.042874333419294627 0.037187447390112142 -0.037845321689320387 0.12974747945641243 0.022268135604207775 -0.040529310197118362
internal_count=4514 2595 1919 1892 2560 254 1638 2536
shrinkage=0.01


Tree=52
num_leaves=14
num_cat=0
split_feature=1 23 14 5 21 5 25 20 10 14 24 1 13
split_gain=34.992952726136103 18.228630066295949 20.830700669726646 12.479996658751269 11.92024680554541 10.966039522917274 10.365252080380049 9.6792569694462838 7.7270276091388883 5.8307912509767856 5.876375238868798 3.1954545657961884 2.9182091916717354
threshold=53.5 347.5 7.0250000000000004 25.734999999999999 84.75 29.770000000000003 234.5 0.49750000000000005 6.3949999999999996 6.1550000000000002 11.949999999999999 71.5 3.7250000000000001
decision_type=2 8 10 10 8 10 8 10 10 8 10 2 8
left_child=1 5 7 9 -5 12 -6 -3 -7 11 -11 -2 -1
right_child=3 2 -4 4 6 8 -8 -9 -10 10 -12 -13 -14
leaf_value=-0.00068193219397336873 -0.00031330338457659184 0.00013261937294630611 0.0044918717563826654 0.0035915429418260343 0.0015316065321986476 -1.0511918515107347e-05 0.00034928970463297509 0.0022617077138323521 0.0024108054374710817 0.0020939605658339853 0.00041183933147234301 0.00075605213793170339 -0.00036120306581041136
leaf_count=1006 307 335 21 29 243 808 263 42 22 42 263 59 1074
internal_value=0 -0.022973188411707011 0.061237265206353232 0.060389317411552644 0.10697525734666376 -0.034811546905520366 0.091953152774556263 0.037412304348456063 0.0059883878875556509 0.021839084802387596 0.064532617202639989 -0.014077254017390121 -0.05157717359629322
internal_count=4514 3308 398 1206 535 2910 506 377 830 671 305 366 2080
shrinkage=0.01


Tree=53
num_leaves=10
num_cat=0
split_feature=1 14 10 3 4 18 5 26 13
split_gain=34.443043516359317 21.234999916651347 21.053987770266559 14.467821244498333 9.2798576955456191 8.9936019778257776 8.7726995909678287 7.2273022923222943 2.8537783802929688
threshold=47.5 7.4649999999999999 5.875 35.594999999999999 89.230000000000004 5.0949999999999998 29.770000000000003 11.449999999999999 3.7149999999999999
decision_type=2 10 10 10 10 10 10 10 8
left_child=1 6 3 5 -5 -2 8 -8 -1
right_child=2 -3 -4 4 -6 -7 7 -9 -10
leaf_value=-0.00071338500747462506 1.0181123153031191e-05 0.0027711005284717827 0.0038468154998265369 0.00026653840376580202 0.0018887178159311252 0.00068361300679209652 -0.00017528049665399678 0.00094093327158729955 -0.00037135633447860642
leaf_count=876 1138 35 27 97 157 500 642 123 919
internal_value=0 -0.032423336108914715 0.042102158946898935 0.036501355934319892 0.12761630366323443 0.021794037392398189 -0.037233785807268494 0.00052723380632095542 -0.053777305459929932
internal_count=4514 2595 1919 1892 254 1638 2560 765 1795
shrinkage=0.01


Tree=54
num_leaves=15
num_cat=0
split_feature=1 23 22 10 28 4 27 10 1 3 20 2 1 1
split_gain=33.779990068206061 17.811208428668323 27.426656939614876 12.274019149313855 12.074841861016147 14.181510320547257 11.072502169264542 9.4612811781698305 8.3266912367111985 7.2600039241028895 6.9478550195788582 5.4958683524804108 4.2441533745543598 3.7478623959201229
threshold=53.5 346.5 28.949999999999999 2.0649999999999999 0.20050000000000001 84.215000000000003 13.75 2.145 35.5 41.519999999999996 0.45950000000000002 18.574999999999999 37.5 32.5
decision_type=2 8 8 10 8 10 10 10 2 10 10 10 2 2
left_child=1 7 -3 9 5 -5 -6 13 -4 11 -11 -2 -9 -1
right_child=3 2 8 4 6 -7 -8 12 -10 10 -12 -13 -14 -15
leaf_value=-0.0007502389767306037 0.00078598170433018884 0.0050759423235185609 -0.00050096236728379136 0.00088468012747574751 0.000355506381547506 0.0057280633692241324 0.0020662890700512667 -0.00038521010484570941 0.00070800506137536469 0.00044788993756720804 0.0032210006394372986 2.1480622377540324e-05 0.00048602688963370852 -0.00036373216836821392
leaf_count=624 227 21 155 20 178 20 99 147 298 34 27 601 300 1763
internal_value=0 -0.022588174620758142 0.052705596516086757 0.05929047866439556 0.12832353167439176 0.33683562989179039 0.097514650048133103 -0.035530398351828071 0.030216125646370644 0.033731303364545218 0.16959367194149527 0.023205550470371188 0.02023087680619718 -0.046409137335926207
internal_count=4514 3308 474 1206 317 40 277 2834 453 889 61 828 447 2387
shrinkage=0.01


Tree=55
num_leaves=15
num_cat=0
split_feature=10 23 29 22 4 13 4 21 25 31 2 13 5 11
split_gain=28.788596609464772 12.722660696642775 19.713755236930695 37.662788512655112 10.356454435954756 16.185201540719525 9.6687362828269379 8.8566122434105452 11.533289255694577 7.9356073201528226 6.8748384680411432 5.7170172257755603 5.5086936968705764 3.2097601858160592
threshold=2.5750000000000002 347.5 62.450000000000003 30.350000000000001 96.14500000000001 5.0299999999999994 92.944999999999993 85.650000000000006 203.5 6.6500000000000004 18.649999999999999 4.4749999999999996 21.395 5.2450000000000001
decision_type=10 8 8 10 8 10 10 8 8 10 10 10 8 8
left_child=1 6 13 -4 5 10 12 9 -9 -6 -2 -8 -1 -3
right_child=4 2 3 -5 7 -7 11 8 -10 -11 -12 -13 -14 -15
leaf_value=-0.00063421111756490917 0.0024624783577937683 -0.0003938460961882401 0.0070681381435867222 0.00080064313837921995 0.004557420819631554 0.0035239105803198533 5.7186631538339234e-05 0.0031650774807000228 0.00065123928378725408 0.0012159599249272205 -5.9821812024493513e-05 0.0012120898093488277 -0.00021689284213736179 0.00043265115927522538
leaf_count=849 20 152 21 75 26 25 731 37 180 22 297 84 1811 184
internal_value=0 -0.013660704069212165 0.05425004142622207 0.220855863648662 0.083599112061600644 0.035658422599461961 -0.022296337972309472 0.14462416816436985 0.10881802143545972 0.30344121905706567 0.0098828412800181491 0.017762318694414202 -0.034836820997981098 0.0059036134228132135
internal_count=4514 3907 432 96 607 342 3475 265 217 48 317 815 2660 336
shrinkage=0.01


Tree=56
num_leaves=10
num_cat=0
split_feature=1 10 3 2 23 1 30 18 18
split_gain=33.025625162587943 20.274396496845153 13.808826448473559 12.747618132543723 9.5212204264310643 15.575749493546741 8.6660689813130141 8.6591773932112375 4.4560222675120968
threshold=47.5 5.875 35.149999999999999 59.200000000000003 347.5 37.5 28.350000000000001 5.0949999999999998 4.7649999999999997
decision_type=2 10 10 10 8 2 8 10 10
left_child=3 2 7 4 8 -6 -4 -2 -1
right_child=1 -3 6 -5 5 -7 -8 -9 -10
leaf_value=-0.00068442498562857983 8.431294207506025e-06 0.0037634323457700061 0.0027096231280588053 0.0021168530002815449 -0.00053331917221222634 0.0014320672158791522 0.00085240406444930816 0.00067083999456074757 -0.00029643504693046516
leaf_count=901 1138 27 53 37 159 130 205 496 1368
internal_value=0 0.041194143851326144 0.035685959383716145 -0.031774457291987961 -0.035448413088445783 0.036536253772404444 0.12376319938541309 0.021175830055516431 -0.044869250234284563
internal_count=4514 1919 1892 2595 2558 289 258 1634 2269
shrinkage=0.01


Tree=57
num_leaves=15
num_cat=0
split_feature=1 23 22 10 28 4 27 10 1 3 20 2 1 1
split_gain=32.467415060831421 16.912675144187777 26.534854959887653 11.684660505607244 11.733365182342801 13.572691099461881 10.702913408297064 8.9915420379870987 7.9877691986829298 6.9678900621003867 6.758378178620406 5.3899093197543149 4.1384507649533262 3.6542839821610151
threshold=53.5 346.5 28.949999999999999 2.0649999999999999 0.20050000000000001 84.215000000000003 13.75 2.145 35.5 41.519999999999996 0.45950000000000002 19.515000000000001 37.5 32.5
decision_type=2 8 8 10 8 10 10 10 2 10 10 10 2 2
left_child=1 7 -3 9 5 -5 -6 13 -4 11 -11 -2 -9 -1
right_child=3 2 8 4 6 -7 -8 12 -10 10 -12 -13 -14 -15
leaf_value=-0.00073687811920107951 0.00074515920428527198 0.0049692374842955486 -0.00049736836991471473 0.0008709590677804356 0.00034036083766130854 0.0055981596893757909 0.0020198367690104787 -0.0003848504579479376 0.00068648852250447227 0.00042936562115755662 0.0031598269767641948 6.9359282264645438e-06 0.00047533688303404029 -0.00035497805593681891
leaf_count=624 247 21 155 20 178 20 99 147 298 34 27 581 300 1763
internal_value=0 -0.022163219875194012 0.051140073173903809 0.058080508940009365 0.12532742146633336 0.33033615665073912 0.094959070010941768 -0.034791731534407712 0.028970482811780277 0.033130855646828598 0.16601531402499592 0.022808228043681017 0.019541677843961412 -0.045410178854243144
internal_count=4514 3308 474 1206 317 40 277 2834 453 889 61 828 447 2387
shrinkage=0.01


Tree=58
num_leaves=14
num_cat=0
split_feature=1 23 14 10 21 10 28 20 2 3 19 2 1
split_gain=31.809530013161794 16.624087781720771 19.795004407874803 11.426963492381184 11.646755527673612 9.805226321287261 9.3954584012623901 9.2659789927464082 7.4960983311798737 6.8138630493185088 6.6489660367301298 5.2816948567292901 3.047003084476831
threshold=53.5 347.5 7.0250000000000004 2.0649999999999999 85.75 1.665 0.21050000000000002 0.49750000000000005 59.200000000000003 41.519999999999996 151.5 18.574999999999999 32.5
decision_type=2 8 10 10 8 10 8 10 10 10 10 10 2
left_child=1 5 7 9 -5 12 -6 -3 -7 11 -11 -2 -1
right_child=3 2 -4 4 6 8 -8 -9 -10 10 -12 -13 -14
leaf_value=-0.00074511139845443016 0.00076822112066655111 0.00011407496912461879 0.0043451840272144479 0.003376613718695463 0.0025688954539139441 4.5535103028255564e-06 0.00060121454358339789 0.0021917201338005799 0.0025214910810512255 0.00025311433675550968 0.0029472086361600775 1.9234694784117706e-05 -0.00038355159441021624
leaf_count=593 227 335 21 36 49 740 232 42 21 30 31 601 1556
internal_value=0 -0.021946658451259277 0.058340988998200227 0.057465640463132343 0.12391688626542821 -0.033282365437970335 0.095040932907147685 0.035055788413401595 0.0075935618512862563 0.032788431974285492 0.16408008151894093 0.022574910884490717 -0.04826909878490241
internal_count=4514 3308 398 1206 317 2910 281 377 761 889 61 828 2149
shrinkage=0.01


Tree=59
num_leaves=10
num_cat=0
split_feature=1 10 3 2 23 22 23 30 1
split_gain=31.287413736013416 19.484675993901277 13.148418504677148 12.290601239991904 8.9634506587910536 17.598195238422701 8.4621244321621347 8.3933020409832046 4.2534969552165478
threshold=47.5 5.875 35.149999999999999 59.200000000000003 347.5 29.25 334.5 28.350000000000001 32.5
decision_type=2 10 10 10 8 10 10 8 2
left_child=3 2 6 4 8 -6 -2 -4 -1
right_child=1 -3 7 -5 5 -7 -8 -9 -10
leaf_value=-0.00071775008593336423 -0.00013176878848352821 0.0036754675517697362 0.0026493499161380101 0.0020769677811175846 0.0038599272376706492 4.3776607591867934e-05 0.00047563527710996526 0.00082550182753558657 -0.00031499378461221169
leaf_count=693 734 27 53 37 22 267 900 205 1576
internal_value=0 0.040055763621582113 0.034644267835666383 -0.030957742289352972 -0.034574352559319538 0.035215517832571902 0.020476424932690591 0.12044894517717307 -0.043730506572576315
internal_count=4514 1919 1892 2595 2558 289 1634 258 2269
shrinkage=0.01


Tree=60
num_leaves=15
num_cat=0
split_feature=10 14 2 19 16 18 2 25 5 20 8 12 10 14
split_gain=26.763085479374578 11.765217317869114 22.542696804852646 11.70403275405852 9.8549467473134769 18.758191056833468 14.96358713050337 10.765646967176703 8.4279021425737586 7.9657355762625786 12.616680986146378 4.8652376226442433 3.8251052344408425 1.3214500611844819
threshold=2.5750000000000002 7.3449999999999998 18.774999999999999 139.90000000000001 404.935 5.4249999999999998 34.215000000000003 203.5 25.734999999999999 0.4425 31.435000000000002 1.1850000000000001 1.1850000000000001 3.5350000000000001
decision_type=10 10 10 10 10 10 8 8 8 8 10 10 8 8
left_child=1 3 -3 13 5 7 -7 -2 -5 10 -6 -11 -4 -1
right_child=4 2 12 8 9 6 -8 -9 -10 11 -12 -13 -14 -15
leaf_value=-0.00083287143424966715 0.0024753662263773553 0.0050700788222951664 -0.000432824929132764 -0.00035960197578843739 -7.6342423391394354e-05 0.001865364830661762 0.0057678433172271186 0.00028923828977326461 0.00017897921091077309 -0.0006868897640534918 0.0041273259860081816 0.00049977306467693309 0.0012378936758815405 -0.00043496738422019144
leaf_count=176 47 20 53 777 28 56 23 193 1608 115 21 124 42 1231
internal_value=0 -0.013194765332757822 0.1166574689363427 -0.017373169177022786 0.080467693222300338 0.13025979551373665 0.30386459656594145 0.072641860645054235 0.00056956680254306149 0.024718533370773718 0.17527150486121928 -0.0068709761413177162 0.031228574766930969 -0.048423154978009163
internal_count=4514 3907 115 3792 607 319 79 240 2385 288 49 239 95 1407
shrinkage=0.01


Tree=61
num_leaves=12
num_cat=0
split_feature=1 23 14 11 3 5 8 20 27 10 11
split_gain=30.58391653425036 15.891535663014356 19.046074070834138 11.158476337179351 10.399814240049388 9.6962322881404255 9.0207367644605831 8.9404344050568607 8.3548391040281462 7.1797883031171885 2.7993415115138767
threshold=53.5 347.5 7.0250000000000004 7.9800000000000004 36.504999999999995 29.770000000000003 35.775000000000006 0.49750000000000005 14.050000000000001 6.3949999999999996 4.415
decision_type=2 8 10 10 10 10 10 10 10 10 8
left_child=1 5 7 4 8 10 -6 -3 -2 -7 -1
right_child=3 2 -4 -5 6 9 -8 -9 -10 -11 -12
leaf_value=-0.00083265643459056403 0.00010510771474248604 0.00010750937695164004 0.0042454180229539625 0.0035448964080343737 0.0010241246594862954 -1.1049461359293426e-05 0.00357023554535178 0.0021447701254214365 0.00091171372209835385 0.0023141059687218431 -0.00041345885335472619
leaf_count=355 714 335 21 20 120 808 28 42 324 22 1725
internal_value=0 -0.021536715041590465 0.056898646429112784 0.056304237862317419 0.050939980678212059 -0.032633456749845066 0.15155054447956964 0.03400558858846707 0.035855983412314232 0.0057062323742465403 -0.048444583531261541
internal_count=4514 3308 398 1206 1186 2910 148 377 1038 830 2080
shrinkage=0.01


Tree=62
num_leaves=9
num_cat=0
split_feature=1 14 10 5 2 2 0 1
split_gain=30.090305331395538 19.870717951100001 18.650577947376568 12.660080528927798 11.908725809003116 9.2601381347175185 6.233517823969553 2.6536492381579566
threshold=47.5 7.4649999999999999 5.875 23.585000000000001 20.734999999999999 68.319999999999993 9.9999996826552254e-21 64.5
decision_type=2 10 10 8 8 10 2 2
left_child=1 5 3 7 -5 6 -1 -2
right_child=2 -3 -4 4 -6 -7 -8 -9
leaf_value=-0.0005832671852356306 -0.00030112224478083798 0.0026794608236692529 0.0035859330806374766 0.0016978087546275836 0.00043366319944583223 0.0022192984204067834 -0.00015919177232366833 0.00032198483885330381
leaf_count=1314 484 35 27 145 1101 24 1222 162
internal_value=0 -0.030381090719849544 0.039254507999410548 0.033946526615272594 0.058170132453348448 -0.035061430189732838 -0.037633106369065542 -0.014342213597502625
internal_count=4514 2595 1919 1892 1246 2560 2536 646
shrinkage=0.01


Tree=63
num_leaves=14
num_cat=0
split_feature=1 23 21 21 13 3 10 8 10 27 29 1 1
split_gain=29.509164063103015 15.496542648920251 22.474256852521719 11.003451580798725 12.130974534986791 12.059642525771382 9.6579532497102321 9.3132071052757475 8.2837260895543032 5.2625463257216163 4.6806248224261298 3.9884458904248743 3.4002798911641321
threshold=53.5 346.5 82.549999999999997 85.450000000000003 4.0149999999999997 40.754999999999995 4.5949999999999998 35.775000000000006 2.145 14.050000000000001 53.650000000000006 37.5 32.5
decision_type=2 8 10 8 10 10 10 10 10 10 10 2 2
left_child=1 8 -3 4 10 9 -4 -7 12 -5 -2 -10 -1
right_child=3 2 6 5 -6 7 -8 -9 11 -11 -12 -13 -14
leaf_value=-0.00070824529566890075 -0.0005002649574555628 0.0043640524400912041 0.0001277377721138002 7.7440607403015584e-05 0.0044271612794554863 0.0011203392693524058 0.0028732256663597882 0.0040934092933244352 -0.00038154382093332477 0.00073322680078517712 0.0017193053826965385 0.00046284427872124863 -0.00033935825934832049
leaf_count=624 23 23 429 687 23 91 22 21 147 307 54 300 1763
internal_value=0 -0.021169701297345512 0.048903896394744087 0.055268139975303797 0.18526166906864541 0.043146201334337893 0.02734868239664141 0.16910632167904771 -0.033286413216756371 0.028156745700050324 0.1061520270056146 0.018835037111369239 -0.043500036166534514
internal_count=4514 3308 474 1206 100 1106 451 112 2834 994 77 447 2387
shrinkage=0.01


Tree=64
num_leaves=9
num_cat=0
split_feature=1 14 10 5 2 2 0 1
split_gain=28.986735340019692 19.365465798311924 18.038827963837498 12.333581334116687 11.621939003880446 9.0237213787171591 6.0487861956587814 2.5811278256335606
threshold=47.5 7.4649999999999999 5.875 23.585000000000001 20.734999999999999 68.319999999999993 9.9999996826552254e-21 64.5
decision_type=2 10 10 8 8 10 2 2
left_child=1 5 3 7 -5 6 -1 -2
right_child=2 -3 -4 4 -6 -7 -8 -9
leaf_value=-0.00057409823706004899 -0.00029954182739804148 0.0026423184665745115 0.0035175835711183886 0.0016729655445448903 0.00042536395285955222 0.0021890280953089799 -0.00015622237205530532 0.00031484577074820724
leaf_count=1314 484 35 27 145 1101 24 1222 162
internal_value=0 -0.029838379643277287 0.038502737801112442 0.033272951286076227 0.057163637235392757 -0.034468331927540598 -0.037011719701660513 -0.014394920559104749
internal_count=4514 2595 1919 1892 1246 2560 2536 646
shrinkage=0.01


Tree=65
num_leaves=14
num_cat=0
split_feature=1 23 14 10 28 26 1 3 5 10 29 17 13
split_gain=28.576515608218035 18.331707920938769 17.315948264910389 14.88025349801185 14.58350233714264 10.205581829182885 10.158579099424671 9.1199367279509342 8.4487345447889339 7.4894039638110463 7.1339722040406937 4.13461220306288 3.1909558815338208
threshold=55.5 347.5 7.0250000000000004 2.5750000000000002 0.20050000000000001 10.649999999999999 37.5 41.519999999999996 25.440000000000001 1.665 59.349999999999994 6.6449999999999996 4.4649999999999999
decision_type=2 8 10 10 8 10 2 10 8 10 10 10 10
left_child=1 8 6 7 -5 -6 -3 11 12 -10 -9 -2 -1
right_child=3 2 -4 4 5 -7 -8 10 9 -11 -12 -13 -14
leaf_value=-0.00063443322320820095 2.4432787705578714e-06 -0.00041129232661698677 0.0041267054738236639 0.0048405332258164022 0.00016255586061119189 0.0023614774499072732 0.00094316823374455798 0.00086724122916709539 -0.00030961192104501814 0.00024035331681891684 0.0039254155704109527 0.00064401783355689374 0.00063675689421069783
leaf_count=1085 423 161 21 21 70 70 253 34 1373 646 20 300 37
internal_value=0 -0.017649209969433054 0.062708284473248707 0.064211208077330259 0.17597103663608563 0.1275281373486446 0.042780123679935937 0.039713785551732578 -0.029171231213387619 -0.012910089645040255 0.20065434580954261 0.02700230894624701 -0.059175640026209259
internal_count=4514 3576 435 938 161 140 414 777 3141 2019 54 723 1122
shrinkage=0.01


Tree=66
num_leaves=13
num_cat=0
split_feature=1 5 16 12 14 31 11 3 4 1 27 29
split_gain=28.113375130739886 21.558739645583884 16.048944047414842 30.167202098656492 14.288943259609935 16.452597514342706 13.894745738395653 9.2266817009237556 8.2387919440400079 2.1524357275824926 2.365761537486649 0.73456558292889795
threshold=37.5 30.93 288.56999999999999 1.2450000000000001 7.4249999999999998 6.6500000000000004 8.0899999999999999 118.67500000000001 92.474999999999994 32.5 17.149999999999999 65.450000000000003
decision_type=2 10 8 8 10 10 8 10 8 2 10 10
left_child=7 4 3 -3 8 -6 -4 9 -2 11 -11 -1
right_child=1 2 6 -5 5 -7 -8 -9 -10 10 -12 -13
leaf_value=-0.00073847506651802291 -0.00038399949983504834 0.005497547049760452 0.00045273581253927985 0.00074369844277966416 0.0049242068636100519 0.00018767708209651191 0.0036182124500536267 0.0022365787346881505 0.00016353296991588421 -0.0004183686281070094 0.00070175229396551451 -0.00033165507783084808
leaf_count=678 918 32 887 73 21 31 23 21 1071 630 36 93
internal_value=0 0.022622023810011684 0.071639669901461103 0.22400086957346602 -0.0028260630940640215 0.21101771250764395 0.053805305659822375 -0.049227194550577322 -0.0086994922968581349 -0.053479474737983271 -0.035702290826007448 -0.068944072132880757
internal_count=4514 3056 1015 105 2041 52 910 1458 1989 1437 666 771
shrinkage=0.01


Tree=67
num_leaves=15
num_cat=0
split_feature=1 23 29 22 10 28 26 18 1 2 29 10 17 13
split_gain=27.687240446545061 17.888429147127326 16.893318358737549 36.113159495520101 14.478128133259268 14.167820371644538 9.9376371334616902 8.7014391335501635 7.9689577067556083 7.6213925574226478 8.0416682924922736 7.5254230862550138 3.6342914715590298 2.0422364541614577
threshold=55.5 347.5 62.450000000000003 30.449999999999999 2.5750000000000002 0.20050000000000001 10.649999999999999 4.7649999999999997 32.5 39.594999999999999 58.75 4.5949999999999998 6.6449999999999996 4.835
decision_type=2 8 10 10 10 8 10 10 2 10 10 10 10 10
left_child=1 7 11 -4 9 -6 -7 13 -9 12 -11 -3 -2 -1
right_child=4 2 3 -5 5 6 -8 8 -10 10 -12 -13 -14 -15
leaf_value=-0.00058656013084901031 2.9973542747109448e-05 4.6509341397273422e-06 0.0069012207136593404 0.00076879671164906897 0.0047602307269137461 0.00015647252381357449 0.0023243990843239567 -0.00060732126375254842 4.6711726820167861e-05 0.00054620231343619873 0.0038369442407401632 0.0023408502395093882 0.00063072140472385913 0.00073708704486202207
leaf_count=1244 428 317 21 73 21 70 70 445 1431 30 21 24 298 21
internal_value=0 -0.017383863926494859 0.061962742070526704 0.21812795094902132 0.063164010153326497 0.17326028042760358 0.12548169293614392 -0.028773589818624309 -0.010560250545804697 0.038992263251605916 0.19136357616236002 0.018424784856313277 0.027779844226663873 -0.056374524846763009
internal_count=4514 3576 435 94 938 161 140 3141 1876 777 51 341 726 1265
shrinkage=0.01


Tree=68
num_leaves=13
num_cat=0
split_feature=1 23 22 29 1 3 17 6 3 1 27 29
split_gain=27.220401866853983 26.626320624404364 36.114399927929874 48.973525107517027 14.738142690943713 11.459914882680254 10.727650918882389 10.533303464551658 9.0149224863515443 2.073855971339011 2.3178737387214863 0.71415413572526631
threshold=37.5 347.5 30.350000000000001 60.549999999999997 55.5 40.754999999999995 8.2749999999999986 79.375 118.67500000000001 32.5 17.149999999999999 65.450000000000003
decision_type=2 10 10 10 2 10 8 10 10 2 10 10
left_child=8 4 3 -3 6 -6 -2 -4 9 11 -11 -1
right_child=1 2 7 -5 5 -7 -8 -9 -10 10 -12 -13
leaf_value=-0.00072709459122566615 -0.00026246340831207675 0.0013973023367564775 0.00031311652723826775 0.0092307336794010923 0.00038064063429351334 0.0021210346084651732 0.00071365025004244229 0.0021563294768826265 0.002209641493996477 -0.00041305087075632841 0.00069538013599349359 -0.00032583065622155077
leaf_count=678 1626 38 258 20 752 68 228 66 21 630 36 93
internal_value=0 0.022246250947865611 0.12420559890005929 0.42067949505389829 0.0071416688286133883 0.053274826527272987 -0.014073682711091457 0.06960053312338231 -0.048467915248312857 -0.052679208708675908 -0.035227932569367085 -0.067870329650342023
internal_count=4514 3056 382 58 2674 820 1854 324 1458 1437 666 771
shrinkage=0.01


Tree=69
num_leaves=9
num_cat=0
split_feature=1 14 10 3 2 23 30 18
split_gain=26.742214553665807 18.383153700184586 17.043180010911939 11.642564489762043 8.579156553920976 7.9203242571614449 7.9182877166036967 5.6857466760281099
threshold=47.5 7.4649999999999999 5.875 35.149999999999999 68.319999999999993 334.5 28.350000000000001 4.7649999999999997
decision_type=2 10 10 10 10 10 8 10
left_child=1 4 3 5 7 -2 -5 -1
right_child=2 -3 -4 6 -6 -7 -8 -9
leaf_value=-0.00062139391485834905 -0.00014073876546928199 0.0025697601334222671 0.0034008278873951408 0.0025179841105246134 0.0021323970834849783 0.00044638463192008508 0.00075500369251041714 -0.00020175074915996578
leaf_count=953 734 35 27 53 24 900 205 1583
internal_value=0 -0.028699786201195482 0.03693091527490213 0.031832830338509782 -0.033229341670832822 0.018483141838304046 0.11224781482729546 -0.035718331878344875
internal_count=4514 2595 1919 1892 2560 1634 258 2536
shrinkage=0.01


Tree=70
num_leaves=12
num_cat=0
split_feature=1 23 21 1 2 3 18 3 1 27 29
split_gain=26.361947163080231 25.889663476456974 32.983881063127662 14.275117253181689 11.657553101384437 11.04764563715263 9.7878063721180357 8.7278835249060265 2.0383739260436968 2.268638789643493 0.70302782576327516
threshold=37.5 347.5 84.150000000000006 55.5 20.914999999999999 40.754999999999995 4.9050000000000002 118.67500000000001 32.5 17.149999999999999 65.450000000000003
decision_type=2 10 10 2 8 10 8 10 2 10 10
left_child=7 3 -3 6 -4 -5 -2 8 10 -10 -1
right_child=1 2 4 5 -6 -7 -8 -9 9 -11 -12
leaf_value=-0.00071752938983781986 -0.00044478430823230517 0.0061205102971857899 0.0024903173034071238 0.00037403670136131268 0.00056875089589498962 0.0020801596695582598 0.00017136983295646185 0.0021693667712053962 -0.00040591094098138639 0.00069046894403636369 -0.00031925987186446649
leaf_count=678 946 21 66 752 295 68 908 21 630 36 93
internal_value=0 0.021879645393646844 0.12232473483984653 0.0069768916465795605 0.092183564218864464 0.052352259475136595 -0.013911698263513687 -0.047725203053989439 -0.051879133253624407 -0.034573168832435094 -0.066948434322401676
internal_count=4514 3056 382 2674 361 820 1854 1458 1437 666 771
shrinkage=0.01


Tree=71
num_leaves=12
num_cat=0
split_feature=5 2 25 14 4 16 3 4 0 26 13
split_gain=22.820756770319246 15.945324643069737 28.944236903133227 14.78003439663919 10.048591340266867 10.000393009489121 7.0729205269101012 6.8192186508648671 5.4069233486001274 4.430927518826925 1.9074336834476036
threshold=25.734999999999999 20.914999999999999 196.5 7.625 89.844999999999999 281.98000000000002 36.185000000000002 92.474999999999994 9.9999996826552254e-21 11.449999999999999 4.1449999999999996
decision_type=10 10 10 10 10 8 10 8 2 10 10
left_child=3 2 -2 7 9 -4 -6 10 -9 -3 -1
right_child=1 4 5 -5 6 -7 -8 8 -10 -11 -12
leaf_value=-0.00058368501698862114 0.004631174969437735 -0.00032123177072800247 0.0027752613360656681 0.0023283215149104836 0.00014728119738106505 0.000413540799285365 0.0009620852415907834 -0.00028496510311492825 0.0002340843131790631 0.00056761665075327804 3.2341046945273272e-05
leaf_count=1064 37 581 37 37 397 221 343 1020 561 117 99
internal_value=0 0.037262886390540401 0.12579348901725704 -0.024276076488538165 0.019155613609983892 0.074990836200608563 0.052785596459233752 -0.028036403417886553 -0.0099173490600356802 -0.017027813690008508 -0.053015169470286526
internal_count=4514 1733 295 2781 1438 258 740 2744 1581 698 1163
shrinkage=0.01


Tree=72
num_leaves=13
num_cat=0
split_feature=1 23 22 29 1 3 6 18 3 1 27 29
split_gain=25.77869561703243 25.181717830508472 34.491038280013107 46.475309850636116 13.919754912531479 10.712416033797162 10.251372647749143 9.5070239437523529 8.5002930945654818 1.9917338930781874 2.2089327518804129 0.68881652844770613
threshold=37.5 347.5 30.350000000000001 60.549999999999997 55.5 40.754999999999995 79.375 4.9050000000000002 118.67500000000001 32.5 17.149999999999999 65.450000000000003
decision_type=2 10 10 10 2 10 10 8 10 2 10 10
left_child=8 4 3 -3 7 -6 -4 -2 9 11 -11 -1
right_child=1 2 6 -5 5 -7 -8 -9 -10 10 -12 -13
leaf_value=-0.00070982400607873047 -0.00043855839768907538 0.0013492221645804181 0.00029398583003257351 0.0089369635550446309 0.0003697601046554486 0.0020477078577735264 0.0021092195027637272 0.0001687524092866893 0.0021361141329756649 -0.00040155720128958464 0.00067980250629932416 -0.00031551362596500581
leaf_count=678 946 38 258 20 752 68 66 908 21 630 36 93
internal_value=0 0.021627378906607427 0.12060420816264061 0.40901169974440538 0.0069207402853681621 0.051708316485299513 0.067166819440448666 -0.013714019112742348 -0.047213177103796675 -0.051320515298800481 -0.034212089119589638 -0.066223804107294504
internal_count=4514 3056 382 58 2674 820 324 1854 1458 1437 666 771
shrinkage=0.01


Tree=73
num_leaves=13
num_cat=0
split_feature=1 23 22 30 4 10 13 6 3 1 27 16
split_gain=25.271970096798523 24.642587529275087 33.600175616249977 35.870524884881341 13.732235942243012 11.1387992461877 10.682475578165297 10.016270797048797 8.3214297689550385 1.9550798228522446 2.1651078173689253 0.66292439869385689
threshold=37.5 347.5 30.350000000000001 31.949999999999999 98.800000000000011 1.835 4.8849999999999998 79.375 118.67500000000001 32.5 17.149999999999999 538.375
decision_type=2 10 10 10 10 10 10 10 10 2 10 10
left_child=8 4 3 -3 6 -6 -2 -4 9 11 -11 -1
right_child=1 2 7 -5 5 -7 -8 -9 -10 10 -12 -13
leaf_value=-0.0006813863172777031 -0.00015290097137409653 0.0082635647834067745 0.00029095998494655235 0.0016190553702231535 9.9258850878110839e-05 0.0012198935302779887 0.0016569939315130534 0.0020837053897988529 0.0021102176896156963 -0.00039770209785294514 0.00067254483979463755 -2.8851866738665071e-05
leaf_count=742 1997 20 258 38 343 276 58 66 21 630 36 29
internal_value=0 0.021406006145196908 0.11925124040132092 0.40325111857686052 0.0068509421600445649 0.060962981232275851 -0.0099968358660157929 0.066449987647471162 -0.046763309796303811 -0.050833552245136734 -0.033881645017646761 -0.065605224305151227
internal_count=4514 3056 382 58 2674 619 2055 324 1458 1437 666 771
shrinkage=0.01


Tree=74
num_leaves=15
num_cat=0
split_feature=10 14 4 19 16 18 2 25 16 20 8 12 31 6
split_gain=22.5691611955707 9.9326448342958642 31.157975876868399 9.9249045956019799 9.3509729744250478 17.712698992692136 13.457925362405632 9.7794802294094705 7.7632463148723971 7.3001685945115895 11.674597527085485 4.6073238389097702 3.1751418732235077 1.1800613426620767
threshold=2.5750000000000002 7.3449999999999998 108.64500000000001 139.90000000000001 404.935 5.4249999999999998 34.215000000000003 203.5 368.23500000000001 0.4425 31.435000000000002 1.1949999999999998 6.25 74.015000000000001
decision_type=10 10 8 10 10 10 8 8 10 8 10 10 10 8
left_child=1 3 12 13 5 7 -7 -2 -5 10 -6 -11 -3 -1
right_child=4 2 -4 8 9 6 -8 -9 -10 11 -12 -13 -14 -15
leaf_value=-0.00072191513023404366 0.002314712967552748 0.0011999267758996625 0.0054759464683003783 0.0001815418976526518 -0.00013315532574136626 0.0017819734339204907 0.0054530432735208157 0.00024282324009184634 -0.00032502966834526607 -0.00067967998294664951 0.0038858955580888962 0.00047181495749583162 -0.00046120103072307589 -0.00039095771476326972
leaf_count=239 47 28 21 1554 28 56 23 193 831 121 21 118 66 1168
internal_value=0 -0.012164833851443308 0.10658798851539435 -0.016026136909889598 0.073618136225800407 0.12191241972564899 0.28958300896562983 0.065996304127469277 0.00047493334385175873 0.019425080791785381 0.16269376761453991 -0.010839778727907352 0.0030156865846124353 -0.044695874288108436
internal_count=4514 3907 115 3792 607 319 79 240 2385 288 49 239 94 1407
shrinkage=0.01


Tree=75
num_leaves=12
num_cat=0
split_feature=1 10 21 13 3 14 30 8 5 26 2
split_gain=24.781324614532558 13.390937660365186 10.473604266767676 11.509068187334378 10.316016651317007 9.6357719205689598 19.699012287730138 8.8109647670116971 8.2641990698036114 5.8257609106808887 4.7288987780876877
threshold=53.5 6.3949999999999996 85.450000000000003 4.0149999999999997 40.754999999999995 7.4649999999999999 31.550000000000001 35.775000000000006 25.615000000000002 11.449999999999999 19.425000000000001
decision_type=2 10 8 10 10 10 10 10 8 10 8
left_child=1 5 3 9 10 8 -7 -6 -1 -2 -4
right_child=2 -3 4 -5 7 6 -8 -9 -10 -11 -12
leaf_value=-0.00055433168801998119 0.00025709590538400691 0.0022074219055889352 0.0010904569784483712 0.0042597949028975336 0.00099074817757721471 0.0045531104159125006 -0.00061032223288392032 0.0038598564906439856 -9.9174760795876692e-05 0.0027134918567913325 0.00014972357721130123
leaf_count=1126 54 36 103 23 91 20 29 21 2097 23 891
internal_value=0 -0.019463809670864252 0.050485640033244669 0.1768443950920883 0.038669299605863773 -0.022523572359250218 0.15398914819254572 0.15437387337997233 -0.025557940361450173 0.099834912721052382 0.024770473705179041
internal_count=4514 3308 1206 100 1106 3272 49 112 3223 77 994
shrinkage=0.01


Tree=76
num_leaves=13
num_cat=0
split_feature=1 23 22 29 1 3 11 18 3 1 27 29
